{"learner":{"attributes":{"best_iteration":"99","best_ntree_limit":"100","scikit_learn":"{\"use_label_encoder\": false, \"n_estimators\": 100, \"objective\": \"binary:logistic\", \"max_depth\": null, \"max_leaves\": null, \"max_bin\": null, \"grow_policy\": null, \"learning_rate\": null, \"verbosity\": null, \"booster\": null, \"tree_method\": null, \"gamma\": null, \"min_child_weight\": null, \"max_delta_step\": null, \"subsample\": null, \"sampling_method\": null, \"colsample_bytree\": null, \"colsample_bylevel\": null, \"colsample_bynode\": null, \"reg_alpha\": null, \"reg_lambda\": null, \"scale_pos_weight\": null, \"base_score\": null, \"missing\": NaN, \"num_parallel_tree\": null, \"random_state\": null, \"n_jobs\": null, \"monotone_constraints\": null, \"interaction_constraints\": null, \"importance_type\": null, \"gpu_id\": null, \"validate_parameters\": null, \"predictor\": null, \"enable_categorical\": false, \"feature_types\": null, \"max_cat_to_onehot\": null, \"max_cat_threshold\": null, \"eval_metric\": null, \"early_stopping_rounds\": null, \"callbacks\": null, \"classes_\": [0, 1], \"n_classes_\": 2, \"_estimator_type\": \"classifier\"}"},"feature_names":[],"feature_types":[],"gradient_booster":{"model":{"gbtree_model_param":{"num_parallel_tree":"1","num_trees":"100","size_leaf_vector":"0"},"tree_info":[0,0,0,0,0,0,0,0,0,0,0,0,0,0,0,0,0,0,0,0,0,0,0,0,0,0,0,0,0,0,0,0,0,0,0,0,0,0,0,0,0,0,0,0,0,0,0,0,0,0,0,0,0,0,0,0,0,0,0,0,0,0,0,0,0,0,0,0,0,0,0,0,0,0,0,0,0,0,0,0,0,0,0,0,0,0,0,0,0,0,0,0,0,0,0,0,0,0,0,0],"trees":[{"base_weights":[-1.6594974E0,-4.8832035E-1,-1.7631229E0,-7.440559E-1,5.027027E-1,-1.8239001E0,-1.4412993E0,-4.208633E-1,-9.474886E-1,2.2950819E-1,1.2615385E0,-1.7132224E0,-1.8708544E0,-1.6083916E0,-1.365122E0,-1.9960861E-1,-6.0495865E-1,-1.0413694E0,-5.6497175E-1,4.9079755E-1,-1.4977974E-1,9.310345E-1,1.6626506E0,-1.5532103E0,-1.7581863E0,6.896552E-2,-1.8728963E0,-1.3783784E0,-1.6444445E0,-1.4012454E0,-1.0350877E0,-3.6842105E-1,4.7393367E-2,-6.415094E-1,3.0769232E-1,-1.117647E0,-8.2901555E-1,-1.3846154E0,-4.5768026E-1,5.3376204E-1,-3.1578946E-1,4.4067797E-1,-3.488372E-1,1.0384616E0,-0E0,-1.8181819E-1,-1.5638298E0,-1.7147127E0,-1.8184606E0,-8E-2,5E-1,5E-1,-1.8733774E0,-1.4736842E0,-4.7058824E-1,-1.4041916E0,1.8181819E-1,-1.1100478E0,-1.904762E-1,1.904762E-1,-4.5112783E-1,-1.2658228E-1,5.263158E-1,-8.52459E-1,-4.83965E-1,8.888889E-1,-6.666667E-1,-9.7849464E-1,-1.190184E0,-1.0285715E0,-5.777778E-1,-5.8921164E-1,-4.8780486E-2,1.3333334E0,4.950495E-1,-1.1111112E0,2.857143E-1,-2E-1,6.976744E-1,-7.647059E-1,-7.4074075E-2,7.586207E-1,1.28E0,-3.3333334E-1,5E-1,3.529412E-1,-1.1111112E0,-1.694853E0,-1.4368601E0,-1.7161787E0,-0E0,-3.1578946E-1,4E-1,-1.9194304E0,-1.835604E0,-0E0,-1.4961832E0,-0E0,-8E-1,-1.447484E0,-1.2768792E0,-1.0031949E0,-1.3761468E0,1E0,-5.882353E-1],"categories":[],"categories_nodes":[],"categories_segments":[],"categories_sizes":[],"default_left":[1,1,1,1,1,1,1,1,1,1,1,1,1,1,1,1,1,1,1,1,1,1,0,1,1,1,1,1,0,1,1,1,1,1,1,1,1,0,1,1,1,1,1,1,1,1,1,1,0,1,0,0,1,1,1,1,0,1,1,0,0,0,0,0,0,0,0,0,0,0,0,0,0,0,0,0,0,0,0,0,0,0,0,0,0,0,0,0,0,0,0,0,0,0,0,0,0,0,0,0,0,0,0,0,0],"id":0,"left_children":[1,3,5,7,9,11,13,15,17,19,21,23,25,27,29,31,33,35,37,39,41,43,-1,45,47,49,51,53,-1,55,57,59,61,63,65,67,69,-1,71,73,75,77,79,81,83,85,87,89,-1,91,-1,-1,93,95,97,99,-1,101,103,-1,-1,-1,-1,-1,-1,-1,-1,-1,-1,-1,-1,-1,-1,-1,-1,-1,-1,-1,-1,-1,-1,-1,-1,-1,-1,-1,-1,-1,-1,-1,-1,-1,-1,-1,-1,-1,-1,-1,-1,-1,-1,-1,-1,-1,-1],"loss_changes":[1.3392969E3,2.2821648E2,1.9579297E2,4.6610992E1,3.8062775E1,4.111914E1,1.8377197E1,1.1202728E1,1.5140686E1,1.3675523E1,4.914757E0,1.5633789E1,2.380664E1,1.8837891E0,1.1863525E1,5.344253E0,5.242798E0,4.7507935E0,7.1490498E0,2.9929066E0,6.8238373E0,2.9005299E0,0E0,7.994995E0,2.083496E0,5.0551724E-1,7.7539062E0,5.7088165E0,0E0,4.9370117E0,7.0061493E0,3.598998E0,4.4617963E0,4.431282E0,4.2735043E0,1.4093018E0,4.2438354E0,0E0,4.2604637E0,1.7465649E0,2.5898077E0,2.5681512E0,4.8567667E0,7.863655E-1,8.333334E-1,3.1253712E0,6.94751E0,2.942871E0,0E0,8.336842E-1,0E0,0E0,6.8632812E0,2.2049103E0,1.3176471E0,3.6743164E0,0E0,1.5907593E0,5.560224E0,0E0,0E0,0E0,0E0,0E0,0E0,0E0,0E0,0E0,0E0,0E0,0E0,0E0,0E0,0E0,0E0,0E0,0E0,0E0,0E0,0E0,0E0,0E0,0E0,0E0,0E0,0E0,0E0,0E0,0E0,0E0,0E0,0E0,0E0,0E0,0E0,0E0,0E0,0E0,0E0,0E0,0E0,0E0,0E0,0E0,0E0],"parents":[2147483647,0,0,1,1,2,2,3,3,4,4,5,5,6,6,7,7,8,8,9,9,10,10,11,11,12,12,13,13,14,14,15,15,16,16,17,17,18,18,19,19,20,20,21,21,23,23,24,24,25,25,26,26,27,27,29,29,30,30,31,31,32,32,33,33,34,34,35,35,36,36,38,38,39,39,40,40,41,41,42,42,43,43,44,44,45,45,46,46,47,47,49,49,52,52,53,53,54,54,55,55,57,57,58,58],"right_children":[2,4,6,8,10,12,14,16,18,20,22,24,26,28,30,32,34,36,38,40,42,44,-1,46,48,50,52,54,-1,56,58,60,62,64,66,68,70,-1,72,74,76,78,80,82,84,86,88,90,-1,92,-1,-1,94,96,98,100,-1,102,104,-1,-1,-1,-1,-1,-1,-1,-1,-1,-1,-1,-1,-1,-1,-1,-1,-1,-1,-1,-1,-1,-1,-1,-1,-1,-1,-1,-1,-1,-1,-1,-1,-1,-1,-1,-1,-1,-1,-1,-1,-1,-1,-1,-1,-1,-1],"split_conditions":[5.985691E0,8.772563E1,4.379917E1,4.888685E0,1.13754845E2,1.0860565E1,9.245E-1,5E-1,5E-1,5E-1,1.29987E2,5E-1,2.3790279E-1,5E-1,5E-1,5.115E-1,5.5149996E-1,6.8227745E1,4.8465103E1,5E-1,4.8450002E-1,9.885E-1,4.9879518E-1,6.2434273E0,9.76919E0,1.9742587E-1,9.1E-2,4.8083706E1,-4.9333337E-1,9.685E-1,5.7434242E1,3.9538248E0,4.580208E0,7.652769E1,5.575E-1,9.5149994E-1,5.0049996E-1,-4.1538465E-1,6.892466E1,8.8071686E1,5.025E-1,3.2663398E0,9.705E-1,5.02E-1,5.385E-1,9.835E-1,3.6415493E1,9.768656E0,-5.455382E-1,9.9549997E-1,1.5E-1,1.5E-1,1.7532228E1,4.383242E1,5E-1,5.3853306E1,5.454546E-2,5.395E-1,9.395E-1,5.714286E-2,-1.3533835E-1,-3.7974685E-2,1.5789475E-1,-2.5573772E-1,-1.4518951E-1,2.6666668E-1,-2.0000002E-1,-2.935484E-1,-3.5705522E-1,-3.0857146E-1,-1.7333335E-1,-1.767635E-1,-1.4634146E-2,4.0000004E-1,1.4851485E-1,-3.3333337E-1,8.5714296E-2,-6.0000002E-2,2.0930232E-1,-2.2941178E-1,-2.2222223E-2,2.2758621E-1,3.84E-1,-1.0000001E-1,1.5E-1,1.0588236E-1,-3.3333337E-1,-5.0845593E-1,-4.3105805E-1,-5.148536E-1,-0E0,-9.4736844E-2,1.20000005E-1,-5.7582915E-1,-5.5068123E-1,-0E0,-4.4885495E-1,-0E0,-2.4000001E-1,-4.3424523E-1,-3.8306376E-1,-3.0095848E-1,-4.1284406E-1,3E-1,-1.7647061E-1],"split_indices":[3,2,2,3,2,3,0,4,7,4,2,4,2,4,7,1,1,2,2,6,1,0,0,3,3,2,1,2,0,0,2,3,3,2,1,0,1,0,2,2,1,3,0,1,1,0,2,3,0,0,0,0,2,2,7,2,0,1,0,0,0,0,0,0,0,0,0,0,0,0,0,0,0,0,0,0,0,0,0,0,0,0,0,0,0,0,0,0,0,0,0,0,0,0,0,0,0,0,0,0,0,0,0,0,0],"split_type":[0,0,0,0,0,0,0,0,0,0,0,0,0,0,0,0,0,0,0,0,0,0,0,0,0,0,0,0,0,0,0,0,0,0,0,0,0,0,0,0,0,0,0,0,0,0,0,0,0,0,0,0,0,0,0,0,0,0,0,0,0,0,0,0,0,0,0,0,0,0,0,0,0,0,0,0,0,0,0,0,0,0,0,0,0,0,0,0,0,0,0,0,0,0,0,0,0,0,0,0,0,0,0,0,0],"sum_hessian":[1.10415E4,8.98E2,1.01435E4,7.14E2,1.84E2,8.52825E3,1.61525E3,2.77E2,4.37E2,1.3625E2,4.775E1,2.5515E3,5.97675E3,4.995E2,1.11575E3,1.2675E2,1.5025E2,3.495E2,8.75E1,8.05E1,5.575E1,2.8E1,1.975E1,5.675E2,1.984E3,6.25E0,5.9705E3,7.3E1,4.265E2,1.00275E3,1.13E2,7.5E1,5.175E1,1.4475E2,5.5E0,2.54E2,9.55E1,8.75E0,7.875E1,7.675E1,3.75E0,1.375E1,4.2E1,2.5E1,3E0,4.5E0,5.63E2,1.16975E3,8.1425E2,5.25E0,1E0,1E0,5.9695E3,6.55E1,7.5E0,1.001E3,1.75E0,1.035E2,9.5E0,9.5E0,6.55E1,3.85E1,1.325E1,6E1,8.475E1,3.5E0,2E0,9.2E1,1.62E2,5.15E1,4.4E1,5.925E1,1.95E1,2E0,7.475E1,1.25E0,2.5E0,4E0,9.75E0,1.6E1,2.6E1,1.35E1,1.15E1,2E0,1E0,3.25E0,1.25E0,2.71E2,2.92E2,1.16875E3,1E0,3.75E0,1.5E0,2.6675E3,3.302E3,1E0,6.45E1,3.5E0,4E0,7.3925E2,2.6175E2,7.725E1,2.625E1,2E0,7.5E0],"tree_param":{"num_deleted":"0","num_feature":"8","num_nodes":"105","size_leaf_vector":"0"}},{"base_weights":[-1.2527794E0,-3.489087E-1,-1.3372084E0,-5.3367716E-1,3.6596975E-1,-1.4135154E0,-1.1462079E0,-7.265084E-1,-3.4773168E-1,1.6085124E-1,9.4137347E-1,7.267638E-2,-1.4148982E0,-1.2109869E0,-9.831797E-1,-7.894407E-1,-4.7585937E-1,-1.15491435E-1,-5.1465875E-1,3.5273933E-1,-1.1688767E-1,6.886828E-1,1.2696532E0,-5.138106E-2,3.287948E-1,-1.4752226E0,-1.3806405E0,-1.0119467E0,-1.2520326E0,-7.6117504E-1,-1.0276212E0,5.4001857E-2,-8.090964E-1,-3.3745378E-1,-1.0143723E0,-1.0469422E0,-8.8095605E-2,-5.4991955E-1,2.2955284E-1,3.9170682E-1,-3.9891857E-1,2.9315326E-1,-2.892681E-1,8.4605366E-1,2.1502808E-1,6.0127753E-1,1.3360066E0,2.2094679E-1,-1.761197E-1,2.2042222E-1,-1.4761684E0,-1.3304689E0,-1.4289002E0,4.652974E-1,-1.0207342E0,-1.3002094E0,-1.175159E0,-8.06749E-1,-2.2308944E-1,-2.9254657E-1,-1.0334511E0,-4.4796336E-1,1.0376542E0,-8.3400977E-1,-5.031687E-1,-4.1338974E-1,1.3611064E0,-1.3290641E0,-3.1749678E-1,-2.3870766E-1,9.1142245E-2,-6.4765817E-1,-3.9057043E-1,6.974555E-1,-6.7713326E-1,9.636334E-2,4.549775E-1,-9.418921E-1,9.4661996E-2,1.2839706E-1,1.2071226E0,-1.1677995E0,-1.4617474E-1,2.4122153E-1,9.682883E-1,4.9373272E-1,-8.090811E-1,9.4046944E-1,-5.0971013E-2,-1.4769028E0,-5.542679E-1,3.8120687E-2,-1.332199E0,-1.3745728E0,-1.4859481E0,-1.0360239E0,-4.6385777E-1,-1.3018383E0,-1.0160332E-1,-8.164032E-2,-1.1801517E0,-1.1621771E0,-7.3858786E-1,2.4660091E-1,-8.681768E-1,2.6376092E-1,-5.036905E-1,-1.0781776E0,-9.233869E-1],"categories":[],"categories_nodes":[],"categories_segments":[],"categories_sizes":[],"default_left":[1,1,1,1,1,1,1,1,1,1,1,1,1,1,1,1,1,1,1,1,1,1,1,1,0,1,1,1,1,1,1,1,1,1,1,0,1,1,1,1,1,1,1,1,1,1,0,0,0,0,1,1,1,0,1,1,1,1,1,1,1,0,0,0,0,0,0,0,0,0,0,0,0,0,0,0,0,0,0,0,0,0,0,0,0,0,0,0,0,0,0,0,0,0,0,0,0,0,0,0,0,0,0,0,0,0,0,0,0],"id":1,"left_children":[1,3,5,7,9,11,13,15,17,19,21,23,25,27,29,31,33,35,37,39,41,43,45,47,-1,49,51,53,55,57,59,61,63,65,67,-1,69,71,73,75,77,79,81,83,85,87,-1,-1,-1,-1,89,91,93,-1,95,97,99,101,103,105,107,-1,-1,-1,-1,-1,-1,-1,-1,-1,-1,-1,-1,-1,-1,-1,-1,-1,-1,-1,-1,-1,-1,-1,-1,-1,-1,-1,-1,-1,-1,-1,-1,-1,-1,-1,-1,-1,-1,-1,-1,-1,-1,-1,-1,-1,-1,-1,-1],"loss_changes":[7.8898145E2,1.1710571E2,1.3626758E2,2.4980286E1,2.1373491E1,1.3986328E1,2.7386963E1,5.0592194E0,1.3903648E1,7.2708344E0,3.0842438E0,2.4663478E-1,1.1911133E1,1.4518555E1,6.8620605E0,4.5842743E0,4.999092E0,3.7842276E0,5.617695E0,2.5133781E0,4.055669E0,1.9909372E0,6.4632416E-2,2.337637E-1,0E0,4.222168E0,8.558594E0,4.830841E0,4.38916E0,3.0836792E0,2.4520264E0,4.007411E0,1.6207428E0,8.109434E0,2.682088E0,0E0,4.034972E0,2.86343E0,4.7876587E0,1.3952627E0,1.2849245E0,2.4235678E0,4.86464E0,1.3589048E0,2.857134E0,8.4125054E-1,0E0,0E0,0E0,0E0,8.261719E-1,5.100586E0,4.7407227E0,0E0,2.3622742E0,1.7669678E0,3.321045E0,2.1048431E0,3.7815459E0,8.9072835E-1,2.1414185E0,0E0,0E0,0E0,0E0,0E0,0E0,0E0,0E0,0E0,0E0,0E0,0E0,0E0,0E0,0E0,0E0,0E0,0E0,0E0,0E0,0E0,0E0,0E0,0E0,0E0,0E0,0E0,0E0,0E0,0E0,0E0,0E0,0E0,0E0,0E0,0E0,0E0,0E0,0E0,0E0,0E0,0E0,0E0,0E0,0E0,0E0,0E0,0E0],"parents":[2147483647,0,0,1,1,2,2,3,3,4,4,5,5,6,6,7,7,8,8,9,9,10,10,11,11,12,12,13,13,14,14,15,15,16,16,17,17,18,18,19,19,20,20,21,21,22,22,23,23,25,25,26,26,27,27,28,28,29,29,30,30,31,31,32,32,33,33,34,34,36,36,37,37,38,38,39,39,40,40,41,41,42,42,43,43,44,44,45,45,50,50,51,51,52,52,54,54,55,55,56,56,57,57,58,58,59,59,60,60],"right_children":[2,4,6,8,10,12,14,16,18,20,22,24,26,28,30,32,34,36,38,40,42,44,46,48,-1,50,52,54,56,58,60,62,64,66,68,-1,70,72,74,76,78,80,82,84,86,88,-1,-1,-1,-1,90,92,94,-1,96,98,100,102,104,106,108,-1,-1,-1,-1,-1,-1,-1,-1,-1,-1,-1,-1,-1,-1,-1,-1,-1,-1,-1,-1,-1,-1,-1,-1,-1,-1,-1,-1,-1,-1,-1,-1,-1,-1,-1,-1,-1,-1,-1,-1,-1,-1,-1,-1,-1,-1,-1,-1],"split_conditions":[5.985691E0,8.772563E1,3.8117256E1,6.863484E1,1.1313533E2,2.3790279E-1,4.8621758E1,5E-1,5E-1,5E-1,1.29987E2,9.9549997E-1,1.7265682E1,5E-1,5E-1,4.6953545E0,6.617512E1,3.8274827E0,9.735E-1,5E-1,4.875E-1,5E-1,9.865E-1,9.94E-1,9.8638445E-2,1.00499995E-1,5E-1,3.8143646E1,4.395159E1,5.8615196E1,4.867665E1,4.6441708E0,5.919647E0,6.5635124E1,4.99E-1,-3.1408268E-1,5.0450003E-1,7.652769E1,9.785E-1,9.685E-1,5.025E-1,1.0799221E2,4.9650002E-1,4.785E-1,5.25E-1,1.3497815E2,4.0080202E-1,6.628404E-2,-5.283591E-2,6.612667E-2,8.735E-1,6.382468E0,1.1322472E1,1.3958922E-1,4.813421E1,5.865E-1,6.1935444E0,6.4565E0,6.023546E1,4.845E-1,5.1750004E-1,-1.3438901E-1,3.1129625E-1,-2.5020295E-1,-1.5095061E-1,-1.24016926E-1,4.0833193E-1,-3.9871925E-1,-9.5249034E-2,-7.16123E-2,2.7342675E-2,-1.9429746E-1,-1.1717113E-1,2.0923667E-1,-2.0313999E-1,2.8909003E-2,1.3649327E-1,-2.8256765E-1,2.83986E-2,3.851912E-2,3.6213678E-1,-3.5033986E-1,-4.3852426E-2,7.236646E-2,2.904865E-1,1.4811982E-1,-2.4272433E-1,2.8214085E-1,-1.5291304E-2,-4.4307086E-1,-1.6628037E-1,1.1436206E-2,-3.9965972E-1,-4.1237184E-1,-4.4578445E-1,-3.1080717E-1,-1.3915734E-1,-3.905515E-1,-3.0480998E-2,-2.4492096E-2,-3.540455E-1,-3.4865314E-1,-2.2157636E-1,7.398028E-2,-2.6045305E-1,7.912828E-2,-1.5110715E-1,-3.2345328E-1,-2.7701607E-1],"split_indices":[3,2,2,2,2,2,2,7,4,4,2,0,2,4,4,3,2,3,0,6,1,4,0,1,0,1,4,2,2,2,2,3,3,2,1,0,1,2,0,0,1,2,1,1,1,2,0,0,0,0,1,3,3,0,2,1,3,3,2,1,1,0,0,0,0,0,0,0,0,0,0,0,0,0,0,0,0,0,0,0,0,0,0,0,0,0,0,0,0,0,0,0,0,0,0,0,0,0,0,0,0,0,0,0,0,0,0,0,0],"split_type":[0,0,0,0,0,0,0,0,0,0,0,0,0,0,0,0,0,0,0,0,0,0,0,0,0,0,0,0,0,0,0,0,0,0,0,0,0,0,0,0,0,0,0,0,0,0,0,0,0,0,0,0,0,0,0,0,0,0,0,0,0,0,0,0,0,0,0,0,0,0,0,0,0,0,0,0,0,0,0,0,0,0,0,0,0,0,0,0,0,0,0,0,0,0,0,0,0,0,0,0,0,0,0,0,0,0,0,0,0],"sum_hessian":[1.034388E4,8.8410144E2,9.459778E3,7.0272705E2,1.8137437E2,6.7547637E3,2.705015E3,3.43549E2,3.5917804E2,1.346531E2,4.6721268E1,6.230607E0,6.748533E3,1.9312201E3,7.7379486E2,2.7288437E2,7.066466E1,1.5091156E2,2.082665E2,7.947457E1,5.517853E1,2.81505E1,1.8570766E1,4.7359943E0,1.4946129E0,2.4290828E3,4.31945E3,3.3455267E2,1.5966675E3,1.3208737E2,6.4170746E2,6.1747108E0,2.6670966E2,5.7510323E1,1.3154339E1,3.248487E0,1.4766307E2,1.9909447E2,9.172025E0,7.601279E1,3.4617832E0,1.6123938E1,3.9054592E1,2.0539925E1,7.6105742E0,2.585803E0,1.5984964E1,1.2455176E0,3.4904766E0,1.224766E0,2.4278582E3,2.1317827E3,2.1876677E3,1.6711606E0,3.3288153E2,9.7175543E2,6.2491205E2,1.2131326E2,1.0774109E1,5.4521403E0,6.362553E2,4.448963E0,1.7257476E0,2.4502939E2,2.168027E1,5.577353E1,1.7367921E0,8.437154E0,4.717185E0,8.005866E1,6.7604416E1,1.2150408E2,7.759038E1,6.20213E0,2.969895E0,1.3856159E1,6.2156628E1,1.2159108E0,2.2458723E0,1.4627586E1,1.4963516E0,4.467146E0,3.458745E1,3.95307E0,1.6586855E1,6.3895817E0,1.2209926E0,1.4104381E0,1.175365E0,2.425324E3,2.53407E0,2.6648033E0,2.129118E3,1.1334048E3,1.0542628E3,3.231487E2,9.7328205E0,9.703506E2,1.4048293E0,2.919097E0,6.219929E2,1.6938198E1,1.0437506E2,6.592102E0,4.1820073E0,1.4314511E0,4.020689E0,4.4615634E2,1.90099E2],"tree_param":{"num_deleted":"0","num_feature":"8","num_nodes":"109","size_leaf_vector":"0"}},{"base_weights":[-1.0262302E0,-1.1178132E0,-3.4065098E-1,-9.402541E-1,-1.1951277E0,1.9099377E-1,-4.8710966E-1,-1.010446E0,-8.442413E-1,-1.264557E0,-1.1611835E0,6.049559E-2,7.405778E-1,-2.5681514E-1,-5.8897895E-1,-9.0644974E-1,-1.0399438E0,-8.624704E-1,-3.0028638E-1,1.9007201E-1,-1.2654827E0,-1.1642051E0,1.0496702E-1,8.164635E-1,-1.2399669E-2,5.166107E-1,1.0575465E0,1.157654E0,-2.7058747E-1,-6.6858405E-1,-3.5767734E-1,-1.0484415E0,-8.0290943E-1,3.729828E-1,-1.0420747E0,1.1230717E0,-8.657823E-1,-5.6669533E-1,-7.2306655E-2,-1.2141287E0,-1.2921712E0,-1.1142801E0,-1.2169622E0,5.9071493E-1,-9.104062E-2,1.025749E0,-3.711567E-1,-9.5977443E-1,8.243667E-2,2.3577888E-1,7.274474E-1,6.8219507E-1,1.2064523E0,-4.059111E-1,-1.06477246E-1,-7.052312E-1,-4.5813206E-1,-3.799305E-1,7.951686E-1,-7.0523185E-1,-1.0869997E0,2.5177285E-1,-8.198825E-1,-1.0565152E0,-8.970949E-1,-6.7803E-1,-9.0312064E-1,1.0891087E-1,-7.834955E-1,-2.4000709E-1,7.1810395E-1,-1.279532E0,-1.143095E0,-1.1500341E0,-9.9211526E-1,-1.2440144E0,-1.117189E0,-7.676004E-1,1.7673808E-1,1.1254183E0,9.607436E-2,-1.2125341E0,-3.3502346E-1,-4.671984E-2,3.3025953E-1,4.9560252E-1,-3.0326647E-1,9.8487854E-1,2.9708648E-2,-6.0289013E-1,1.014654E0,1.2845896E0,2.1979178E-1,-3.8254675E-1,-1.1538101E0,-3.3861434E-1,7.863677E-2,-8.022866E-1,-5.57995E-1,-5.853005E-1,2.958748E-1,-4.2023098E-1,9.6664496E-2],"categories":[],"categories_nodes":[],"categories_segments":[],"categories_sizes":[],"default_left":[1,1,1,1,1,1,1,1,1,1,1,1,1,1,1,1,1,1,1,0,1,1,1,1,1,1,1,0,1,1,1,1,1,0,1,0,1,1,1,1,0,1,1,0,1,1,0,1,1,1,1,1,1,1,1,1,1,1,0,0,0,0,0,0,0,0,0,0,0,0,0,0,0,0,0,0,0,0,0,0,0,0,0,0,0,0,0,0,0,0,0,0,0,0,0,0,0,0,0,0,0,0,0],"id":2,"left_children":[1,3,5,7,9,11,13,15,17,19,21,23,25,27,29,31,33,35,37,-1,39,41,43,45,47,49,51,-1,53,55,57,59,61,-1,63,-1,65,67,69,71,-1,73,75,-1,77,79,-1,81,83,85,87,89,91,93,95,97,99,101,-1,-1,-1,-1,-1,-1,-1,-1,-1,-1,-1,-1,-1,-1,-1,-1,-1,-1,-1,-1,-1,-1,-1,-1,-1,-1,-1,-1,-1,-1,-1,-1,-1,-1,-1,-1,-1,-1,-1,-1,-1,-1,-1,-1,-1],"loss_changes":[5.6967285E2,1.08819336E2,8.351222E1,1.5551025E1,1.1671875E1,1.6602087E1,1.9560577E1,3.3554688E0,9.994446E0,2.690918E0,1.4495605E1,1.0406546E1,2.6091747E0,5.367649E0,1.0472961E1,3.8242188E0,3.654419E0,7.548279E0,2.0886493E0,0E0,9.238281E-1,8.516113E0,9.927212E-1,4.5083914E0,1.5627226E1,1.4864116E0,1.5221214E-1,0E0,5.6812897E0,3.0061188E0,4.17873E0,9.612732E-1,3.5684433E0,0E0,1.3201904E0,0E0,6.390259E0,2.4322205E0,2.8288136E0,1.50354E0,0E0,7.3222656E0,3.4997559E0,0E0,1.5656133E0,1.2247496E0,0E0,2.0929127E0,5.0799656E0,2.0392294E0,2.7573748E0,3.7123077E0,5.804672E-1,2.0210533E0,5.0908213E0,4.7795258E0,6.5854664E0,2.9010067E0,0E0,0E0,0E0,0E0,0E0,0E0,0E0,0E0,0E0,0E0,0E0,0E0,0E0,0E0,0E0,0E0,0E0,0E0,0E0,0E0,0E0,0E0,0E0,0E0,0E0,0E0,0E0,0E0,0E0,0E0,0E0,0E0,0E0,0E0,0E0,0E0,0E0,0E0,0E0,0E0,0E0,0E0,0E0,0E0,0E0],"parents":[2147483647,0,0,1,1,2,2,3,3,4,4,5,5,6,6,7,7,8,8,9,9,10,10,11,11,12,12,13,13,14,14,15,15,16,16,17,17,18,18,20,20,21,21,22,22,23,23,24,24,25,25,26,26,28,28,29,29,30,30,31,31,32,32,34,34,36,36,37,37,38,38,39,39,41,41,42,42,44,44,45,45,47,47,48,48,49,49,50,50,51,51,52,52,53,53,54,54,55,55,56,56,57,57],"right_children":[2,4,6,8,10,12,14,16,18,20,22,24,26,28,30,32,34,36,38,-1,40,42,44,46,48,50,52,-1,54,56,58,60,62,-1,64,-1,66,68,70,72,-1,74,76,-1,78,80,-1,82,84,86,88,90,92,94,96,98,100,102,-1,-1,-1,-1,-1,-1,-1,-1,-1,-1,-1,-1,-1,-1,-1,-1,-1,-1,-1,-1,-1,-1,-1,-1,-1,-1,-1,-1,-1,-1,-1,-1,-1,-1,-1,-1,-1,-1,-1,-1,-1,-1,-1,-1,-1],"split_conditions":[5.3853306E1,9.770632E0,4.0764246E0,4.461505E1,8.145E-1,1.1313533E2,5E-1,5E-1,9.655E-1,1.75E-1,3.0652512E1,8.413723E1,1.29987E2,4.355E-1,7.005672E1,3.627065E1,5.293569E0,4.461638E1,4.854489E1,5.7021607E-2,2.4928751E1,5E-1,9.16E-1,9.815E-1,8.524543E1,4.975E-1,1.516906E0,3.4729624E-1,6.892466E1,6.8114257E0,5.475E-1,6.751283E0,3.6515087E1,1.11894846E-1,4.395159E1,3.369215E-1,5E-1,4.255E-1,5.6949997E-1,5.0250006E-1,-3.8765138E-1,2.9118557E1,3.6578705E1,1.7721449E-1,3.3526794E1,4.0730267E0,-1.1134701E-1,4.016938E0,5E-1,4.86E-1,9.855E-1,1.3860577E2,9.935E-1,7.123987E0,4.5769024E0,6.2557793E1,5.5793434E1,5.0594606E0,2.3855059E-1,-2.1156956E-1,-3.260999E-1,7.5531855E-2,-2.4596477E-1,-3.1695458E-1,-2.6912847E-1,-2.0340902E-1,-2.709362E-1,3.2673262E-2,-2.3504865E-1,-7.200213E-2,2.154312E-1,-3.838596E-1,-3.4292853E-1,-3.4501022E-1,-2.976346E-1,-3.7320432E-1,-3.3515674E-1,-2.3028013E-1,5.3021427E-2,3.376255E-1,2.8822308E-2,-3.6376023E-1,-1.0050704E-1,-1.4015953E-2,9.9077865E-2,1.4868076E-1,-9.097994E-2,2.9546356E-1,8.912595E-3,-1.8086705E-1,3.043962E-1,3.853769E-1,6.593754E-2,-1.1476403E-1,-3.4614307E-1,-1.0158431E-1,2.3591032E-2,-2.40686E-1,-1.6739851E-1,-1.7559016E-1,8.876245E-2,-1.260693E-1,2.899935E-2],"split_indices":[2,3,3,2,0,2,4,4,0,1,3,2,2,1,2,2,3,2,2,0,3,4,0,0,2,1,3,0,2,3,1,3,2,0,2,0,4,1,1,1,0,2,2,0,3,3,0,3,7,1,0,2,0,3,3,2,2,3,0,0,0,0,0,0,0,0,0,0,0,0,0,0,0,0,0,0,0,0,0,0,0,0,0,0,0,0,0,0,0,0,0,0,0,0,0,0,0,0,0,0,0,0,0],"split_type":[0,0,0,0,0,0,0,0,0,0,0,0,0,0,0,0,0,0,0,0,0,0,0,0,0,0,0,0,0,0,0,0,0,0,0,0,0,0,0,0,0,0,0,0,0,0,0,0,0,0,0,0,0,0,0,0,0,0,0,0,0,0,0,0,0,0,0,0,0,0,0,0,0,0,0,0,0,0,0,0,0,0,0,0,0,0,0,0,0,0,0,0,0,0,0,0,0,0,0,0,0,0,0],"sum_hessian":[9.078093E3,8.007748E3,1.0703446E3,2.4330962E3,5.574652E3,2.3111037E2,8.392342E2,1.4000447E3,1.0330515E3,1.8186162E3,3.7560356E3,1.8766061E2,4.3449753E1,2.5845947E2,5.807747E2,3.1637625E2,1.0836683E3,9.989878E2,3.406373E1,1.0266573E0,1.8175895E3,3.7471738E3,8.861771E0,1.560692E1,1.720537E2,2.7000967E1,1.6448784E1,1.6913828E0,2.567681E2,4.3066574E2,1.50109E2,1.2956673E2,1.8680951E2,1.3697896E0,1.0822986E3,1.10056E0,9.978872E2,1.5022843E1,1.9040886E1,6.3746857E2,1.180121E3,1.9366317E3,1.8105421E3,1.9688398E0,6.8929305E0,1.3384558E1,2.2223623E0,1.4826175E1,1.5722752E2,1.2486889E1,1.4514078E1,6.2572713E0,1.0191512E1,1.3991895E2,1.1684915E2,3.6479156E2,6.587417E1,1.4792409E2,2.1849089E0,1.503437E1,1.14532364E2,2.7396333E0,1.8406989E2,9.785448E2,1.0375379E2,1.6870895E2,8.291783E2,3.7705288E0,1.1252315E1,1.6282583E1,2.7583039E0,3.2302997E2,3.1443863E2,1.4916565E3,4.4497525E2,1.4153267E3,3.9521548E2,1.4252921E0,5.4676385E0,1.1898394E1,1.486164E0,9.885788E0,4.9403872E0,1.03893425E2,5.33341E1,8.4800415E0,4.0068474E0,1.0301722E1,4.2123566E0,1.1188904E0,5.138381E0,9.1638365E0,1.0276761E0,1.3714601E2,2.7729387E0,5.14724E1,6.5376755E1,2.1718086E2,1.4761072E2,5.6558872E1,9.315299E0,1.3650002E2,1.1424065E1],"tree_param":{"num_deleted":"0","num_feature":"8","num_nodes":"103","size_leaf_vector":"0"}},{"base_weights":[-8.6446166E-1,-9.7947043E-1,-3.4247336E-1,-8.054256E-1,-1.0456276E0,3.5489658E-3,-4.9884003E-1,-6.845236E-1,-8.38237E-1,-1.1557842E0,-1.0164093E0,-5.706754E-2,6.04781E-1,-2.9552287E-1,-5.6232053E-1,-8.760896E-1,-5.93344E-1,-8.8783723E-1,-7.600114E-1,-4.5648113E-1,-1.1572841E0,-1.0194514E0,-4.071878E-2,-1.8226248E-1,1.0076452E-1,4.0217397E-1,9.1274756E-1,-3.2283798E-1,5.9990567E-1,-6.046027E-1,-4.2026615E-1,-4.8823518E-1,-9.257606E-1,-3.0104512E-2,-6.2759256E-1,-7.5541437E-1,-9.0816844E-1,-7.686464E-1,2.0955014E-1,7.681586E-2,-7.537199E-1,-9.846765E-1,-1.0687609E0,-3.2122698E-1,1.2274725E-1,4.193522E-2,-2.5079247E-1,-3.8329017E-1,1.734643E-1,5.6525075E-1,-3.8965188E-2,5.595125E-1,1.0607518E0,-9.638031E-1,-2.955396E-1,8.103878E-1,-8.6267814E-2,-6.088267E-1,6.139978E-1,-5.048128E-1,-5.880519E-2,8.6210996E-2,-1.0400112E0,-1.1008348E0,-8.380364E-1,1.5940322E-1,-7.1126324E-1,-5.680484E-1,-7.962798E-1,-7.8283054E-1,1.1121647E-1,-9.15017E-1,-5.138574E-1,-8.369025E-1,-6.787019E-1,9.5875E-1,-4.8551244E-1,-1.0473255E0,-8.8027346E-1,-1.0998995E0,-9.5715547E-1,-8.0577964E-1,1.8892854E-1,6.170854E-1,-1.2909144E-1,-3.8770694E-1,2.0398076E-1,3.1063585E-3,-3.231703E-1,-4.8490766E-1,6.862625E-1,2.973239E-1,1.3500565E-2,1.0573945E0,3.2962206E-1,6.6049236E-1,-3.7857178E-1,-4.922111E-1,8.7703145E-1,1.1369916E0,2.7466103E-1,-1.261508E0,-5.01588E-1,-3.6580998E-1,2.5682282E-1,-6.794758E-2,1.109522E0,-6.648147E-1,-5.2386934E-1,-4.5232677E-1,-9.4605285E-1,4.2607E-1,-3.7400994E-1],"categories":[],"categories_nodes":[],"categories_segments":[],"categories_sizes":[],"default_left":[1,1,1,1,1,1,1,1,1,1,1,1,1,1,1,1,1,1,1,1,0,1,1,1,1,1,1,1,1,1,1,1,1,1,1,1,1,1,1,0,0,1,1,1,1,1,1,1,1,1,1,1,1,1,1,1,0,1,0,1,1,0,0,0,0,0,0,0,0,0,0,0,0,0,0,0,0,0,0,0,0,0,0,0,0,0,0,0,0,0,0,0,0,0,0,0,0,0,0,0,0,0,0,0,0,0,0,0,0,0,0,0,0],"id":3,"left_children":[1,3,5,7,9,11,13,15,17,19,21,23,25,27,29,31,33,35,37,39,-1,41,43,45,47,49,51,53,55,57,59,61,63,65,67,69,71,73,75,-1,-1,77,79,81,83,85,87,89,91,93,95,97,99,101,103,105,-1,107,-1,109,111,-1,-1,-1,-1,-1,-1,-1,-1,-1,-1,-1,-1,-1,-1,-1,-1,-1,-1,-1,-1,-1,-1,-1,-1,-1,-1,-1,-1,-1,-1,-1,-1,-1,-1,-1,-1,-1,-1,-1,-1,-1,-1,-1,-1,-1,-1,-1,-1,-1,-1,-1,-1],"loss_changes":[4.6773877E2,7.271826E1,7.625157E1,6.423584E0,1.3713867E1,1.6056244E1,1.2361511E1,6.152191E0,4.691162E0,4.8120117E-1,1.08342285E1,7.927602E0,2.150569E0,5.89394E0,4.1821136E0,1.8806839E0,5.033165E0,1.576477E0,4.711975E0,6.4619416E-1,0E0,5.2111816E0,6.0942614E-1,3.4454947E0,6.319878E0,1.9014883E0,2.0240593E-1,3.6836853E0,1.116838E0,3.2918396E0,5.2478313E0,5.1173754E0,7.088089E-1,2.1868186E0,2.02697E0,2.8859177E0,1.4838867E0,2.7409973E0,3.3733945E0,0E0,0E0,1.3172363E1,4.156616E0,1.3519683E0,1.1474974E0,3.7826877E0,3.1502666E0,2.888538E0,3.0706735E0,1.8708582E0,2.147222E0,2.6395476E0,2.6379585E-1,5.812893E-1,8.593784E0,1.5581453E0,0E0,2.3412476E0,0E0,2.8102493E0,5.3355513E0,0E0,0E0,0E0,0E0,0E0,0E0,0E0,0E0,0E0,0E0,0E0,0E0,0E0,0E0,0E0,0E0,0E0,0E0,0E0,0E0,0E0,0E0,0E0,0E0,0E0,0E0,0E0,0E0,0E0,0E0,0E0,0E0,0E0,0E0,0E0,0E0,0E0,0E0,0E0,0E0,0E0,0E0,0E0,0E0,0E0,0E0,0E0,0E0,0E0,0E0,0E0,0E0],"parents":[2147483647,0,0,1,1,2,2,3,3,4,4,5,5,6,6,7,7,8,8,9,9,10,10,11,11,12,12,13,13,14,14,15,15,16,16,17,17,18,18,19,19,21,21,22,22,23,23,24,24,25,25,26,26,27,27,28,28,29,29,30,30,31,31,32,32,33,33,34,34,35,35,36,36,37,37,38,38,41,41,42,42,43,43,44,44,45,45,46,46,47,47,48,48,49,49,50,50,51,51,52,52,53,53,54,54,55,55,57,57,59,59,60,60],"right_children":[2,4,6,8,10,12,14,16,18,20,22,24,26,28,30,32,34,36,38,40,-1,42,44,46,48,50,52,54,56,58,60,62,64,66,68,70,72,74,76,-1,-1,78,80,82,84,86,88,90,92,94,96,98,100,102,104,106,-1,108,-1,110,112,-1,-1,-1,-1,-1,-1,-1,-1,-1,-1,-1,-1,-1,-1,-1,-1,-1,-1,-1,-1,-1,-1,-1,-1,-1,-1,-1,-1,-1,-1,-1,-1,-1,-1,-1,-1,-1,-1,-1,-1,-1,-1,-1,-1,-1,-1,-1,-1,-1,-1,-1,-1],"split_conditions":[4.911374E1,9.770632E0,4.888685E0,5E-1,7.795E-1,1.13754845E2,5E-1,3.716721E1,4.395159E1,9.602482E0,3.029276E1,9.685E-1,1.29987E2,5.665E-1,6.2557793E1,6.751283E0,3.8255127E1,7.7785826E0,9.714999E-1,3.714143E1,-3.4718525E-1,5E-1,8.095E-1,7.498469E1,4.555E-1,5E-1,1.516906E0,4.9467173E0,5.9725723E0,5.705E-1,5.628463E0,9.8450005E-1,7.991962E0,9.5949996E-1,9.375E-1,7.7573776E0,9.6950006E-1,9.245E-1,4.3E-1,2.3044758E-2,-2.2611599E-1,2.264867E1,3.6578705E1,3.2370033E1,3.33946E1,7.2553856E1,4.8450002E-1,8.62971E1,9.642363E1,1.1734802E2,2.267134E0,1.3860577E2,1.5029935E2,9.55E-1,6.892466E1,5.318609E0,-2.5880346E-2,5.0750005E-1,1.8419935E-1,5.5418053E0,4.955E-1,2.58633E-2,-3.1200337E-1,-3.3025047E-1,-2.5141093E-1,4.7820967E-2,-2.1337898E-1,-1.7041454E-1,-2.3888394E-1,-2.3484917E-1,3.3364944E-2,-2.745051E-1,-1.5415724E-1,-2.5107077E-1,-2.0361057E-1,2.87625E-1,-1.4565374E-1,-3.1419766E-1,-2.6408204E-1,-3.2996988E-1,-2.8714666E-1,-2.417339E-1,5.6678567E-2,1.8512562E-1,-3.8727432E-2,-1.1631209E-1,6.119423E-2,9.3190756E-4,-9.69511E-2,-1.454723E-1,2.0587875E-1,8.919717E-2,4.0501696E-3,3.1721836E-1,9.8886624E-2,1.9814771E-1,-1.1357154E-1,-1.4766334E-1,2.6310945E-1,3.410975E-1,8.239831E-2,-3.7845242E-1,-1.504764E-1,-1.09743E-1,7.704685E-2,-2.0384274E-2,3.328566E-1,-1.9944443E-1,-1.571608E-1,-1.3569804E-1,-2.8381586E-1,1.2782101E-1,-1.1220299E-1],"split_indices":[2,3,3,4,0,2,4,2,2,2,3,0,2,1,2,3,2,3,0,3,0,4,1,2,1,4,3,3,3,1,3,0,3,0,0,3,0,0,1,0,0,2,2,3,3,2,1,2,2,2,3,2,2,0,2,3,0,1,0,3,1,0,0,0,0,0,0,0,0,0,0,0,0,0,0,0,0,0,0,0,0,0,0,0,0,0,0,0,0,0,0,0,0,0,0,0,0,0,0,0,0,0,0,0,0,0,0,0,0,0,0,0,0],"split_type":[0,0,0,0,0,0,0,0,0,0,0,0,0,0,0,0,0,0,0,0,0,0,0,0,0,0,0,0,0,0,0,0,0,0,0,0,0,0,0,0,0,0,0,0,0,0,0,0,0,0,0,0,0,0,0,0,0,0,0,0,0,0,0,0,0,0,0,0,0,0,0,0,0,0,0,0,0,0,0,0,0,0,0,0,0,0,0,0,0,0,0,0,0,0,0,0,0,0,0,0,0,0,0,0,0,0,0,0,0,0,0,0,0],"sum_hessian":[7.795911E3,6.3876533E3,1.4082573E3,1.7629357E3,4.624718E3,4.38619E2,9.6963837E2,3.8098013E2,1.3819556E3,9.6143555E2,3.6632822E3,3.9926953E2,3.934947E1,2.3205649E2,7.375819E2,1.20082146E2,2.6089798E2,8.393821E2,5.425735E2,2.7112622E0,9.587243E2,3.6518516E3,1.14307995E1,2.2256923E2,1.7670029E2,2.5125587E1,1.4223879E1,2.2580766E2,6.2488217E0,5.6588995E2,1.7169196E2,1.48620205E1,1.0522012E2,1.5062619E1,2.4583536E2,1.16798065E2,7.2258405E2,5.379893E2,4.5841784E0,1.2357268E0,1.4755354E0,2.1538494E3,1.4980022E3,3.853346E0,7.577453E0,5.2196175E1,1.7037306E2,2.2515274E1,1.5418501E2,1.8138826E1,6.9867606E0,5.611513E0,8.612366E0,7.822787E0,2.1798488E2,4.643434E0,1.6053873E0,5.6443384E2,1.4561106E0,1.3882407E2,3.2867886E1,7.6948147E0,7.167206E0,3.126823E1,7.39519E1,1.2383376E1,2.6792433E0,1.8492648E2,6.090888E1,1.1331015E2,3.4879124E0,7.0895013E2,1.363389E1,3.0115076E2,2.3683856E2,2.0235958E0,2.5605824E0,1.3404528E3,8.133965E2,1.1642999E3,3.337022E2,1.679067E0,2.174279E0,2.0679402E0,5.509513E0,1.3913583E1,3.8282593E1,3.8006096E1,1.3236696E2,2.1060917E1,1.4543583E0,8.64152E1,6.776981E1,4.7436028E0,1.3395225E1,1.9747233E0,5.0120373E0,1.1736925E0,4.4378204E0,7.444014E0,1.1683514E0,3.7063344E0,4.116452E0,1.9368271E2,2.4302174E1,1.3759984E0,3.2674358E0,3.361087E2,2.2832515E2,1.2587609E2,1.294797E1,1.281028E1,2.0057606E1],"tree_param":{"num_deleted":"0","num_feature":"8","num_nodes":"113","size_leaf_vector":"0"}},{"base_weights":[-7.321928E-1,-8.7816846E-1,-3.3977345E-1,-7.398237E-1,-9.5030767E-1,-1.028455E-1,-5.0392246E-1,-6.012073E-1,-7.8359234E-1,-1.060829E0,-9.1501427E-1,2.2347423E-1,-1.7571886E-1,-6.626026E-1,-4.5743728E-1,-8.991909E-1,-5.551913E-1,-7.308335E-1,-8.7654865E-1,-3.9958188E-1,-1.0624958E0,-9.187005E-1,6.982569E-2,1.4196956E-1,7.1125376E-1,-6.569817E-2,-2.53978E-1,-6.864075E-1,7.5261146E-2,-4.8710433E-1,-2.2763117E-1,-9.117136E-1,-1.7919296E-1,-5.204431E-1,-1.0482394E0,3.3844268E-1,-7.330541E-1,-9.83198E-1,-8.3832777E-1,6.366472E-2,-6.8070143E-1,-8.807501E-1,-9.985823E-1,5.954482E-1,-9.380063E-2,9.206182E-1,1.1400324E-1,8.575832E-1,3.9042497E-1,-9.422164E-1,-4.7463402E-2,-2.1294628E-1,-5.6449395E-1,-4.309139E-1,-7.3286843E-1,-4.9933305E-1,5.3962946E-1,-6.263761E-1,-4.4117224E-1,-3.4041736E-1,3.1096485E-1,-9.2445695E-1,-2.2160855E-1,-5.428601E-1,1.2879853E-1,-1.0832602E0,-2.6055077E-1,-9.330069E-1,-7.163553E-1,-1.0414217E0,-8.2157695E-1,3.4078795E-2,-8.4671724E-1,-9.7967166E-1,-8.2513905E-1,-4.3724466E-2,-1.0007585E0,-7.485403E-1,1.6637373E-1,6.225354E-2,4.735585E-1,1.0258559E0,-1.718386E-1,-1.4852089E0,4.5490092E-1,-7.6049194E-2,7.9691637E-1,-2.4420749E-1,2.3616658E-1,-7.900641E-1,-2.3939638E-1,-5.6576455E-1,1.1523654E-1,-9.0220946E-1,-6.813992E-1,-6.3616186E-1,1.8900236E-1,-4.627118E-1,-1.3927682E-1,-8.3901E-2,-4.9917832E-1,7.60944E-1,3.4368686E-2],"categories":[],"categories_nodes":[],"categories_segments":[],"categories_sizes":[],"default_left":[1,1,1,1,1,1,1,1,1,1,1,1,1,1,1,1,1,1,1,1,0,1,1,1,1,1,1,1,1,1,1,1,0,1,1,0,1,1,1,0,0,1,1,0,1,0,1,0,1,1,1,1,1,1,1,0,0,1,1,1,1,0,0,0,0,0,0,0,0,0,0,0,0,0,0,0,0,0,0,0,0,0,0,0,0,0,0,0,0,0,0,0,0,0,0,0,0,0,0,0,0,0,0],"id":4,"left_children":[1,3,5,7,9,11,13,15,17,19,21,23,25,27,29,31,33,35,37,39,-1,41,43,45,47,49,51,53,55,57,59,61,-1,63,65,-1,67,69,71,-1,-1,73,75,-1,77,-1,79,-1,81,83,85,87,89,91,93,-1,-1,95,97,99,101,-1,-1,-1,-1,-1,-1,-1,-1,-1,-1,-1,-1,-1,-1,-1,-1,-1,-1,-1,-1,-1,-1,-1,-1,-1,-1,-1,-1,-1,-1,-1,-1,-1,-1,-1,-1,-1,-1,-1,-1,-1,-1],"loss_changes":[3.8214795E2,4.785547E1,7.04117E1,9.673584E0,1.1490234E1,1.7702412E1,7.5897217E0,5.0618896E0,5.5756226E0,4.206543E-1,8.880371E0,5.3072553E0,5.216017E0,4.270912E0,5.5533447E0,3.1122208E-1,5.518097E0,2.182312E0,1.026001E0,5.031821E-1,0E0,6.4556885E0,9.146577E-1,2.4604218E0,5.6781006E-1,4.014306E0,4.400053E0,2.4476624E0,2.5130768E0,4.4251404E0,5.990291E0,2.4797821E-1,0E0,4.9107513E0,3.3333015E-1,0E0,2.047058E0,2.1685791E-1,2.524231E0,0E0,0E0,8.261719E0,1.5600586E0,0E0,1.568875E0,0E0,2.1077905E0,0E0,2.9838552E0,4.561689E0,6.090932E0,4.4798965E0,2.8030672E0,2.882094E0,1.0896606E0,0E0,0E0,1.555603E0,3.5514297E0,3.2394686E0,2.1264772E0,0E0,0E0,0E0,0E0,0E0,0E0,0E0,0E0,0E0,0E0,0E0,0E0,0E0,0E0,0E0,0E0,0E0,0E0,0E0,0E0,0E0,0E0,0E0,0E0,0E0,0E0,0E0,0E0,0E0,0E0,0E0,0E0,0E0,0E0,0E0,0E0,0E0,0E0,0E0,0E0,0E0,0E0],"parents":[2147483647,0,0,1,1,2,2,3,3,4,4,5,5,6,6,7,7,8,8,9,9,10,10,11,11,12,12,13,13,14,14,15,15,16,16,17,17,18,18,19,19,21,21,22,22,23,23,24,24,25,25,26,26,27,27,28,28,29,29,30,30,31,31,33,33,34,34,36,36,37,37,38,38,41,41,42,42,44,44,46,46,48,48,49,49,50,50,51,51,52,52,53,53,54,54,57,57,58,58,59,59,60,60],"right_children":[2,4,6,8,10,12,14,16,18,20,22,24,26,28,30,32,34,36,38,40,-1,42,44,46,48,50,52,54,56,58,60,62,-1,64,66,-1,68,70,72,-1,-1,74,76,-1,78,-1,80,-1,82,84,86,88,90,92,94,-1,-1,96,98,100,102,-1,-1,-1,-1,-1,-1,-1,-1,-1,-1,-1,-1,-1,-1,-1,-1,-1,-1,-1,-1,-1,-1,-1,-1,-1,-1,-1,-1,-1,-1,-1,-1,-1,-1,-1,-1,-1,-1,-1,-1,-1,-1],"split_conditions":[4.4810898E1,1.0860565E1,5.830141E0,5E-1,7.795E-1,3.5759077E0,9.245E-1,2.5555775E1,9.76919E0,9.602482E0,3.1212355E1,9.865E-1,5E-1,8.825374E0,5E-1,1.0795336E1,5E-1,5.293569E0,1.0013965E1,3.714143E1,-3.1874877E-1,5E-1,3.3205498E1,9.1942505E1,2.6451159E0,3.636724E0,5.445E-1,5E-1,5E-1,4.675E-1,5.7183273E1,6.465E-1,-5.375789E-2,1.0745193E1,5.875E-1,1.0153281E-1,4.025E-1,5.395E-1,1.0018726E1,1.9099416E-2,-2.0421045E-1,1.7530846E1,9.4283905E0,1.7863446E-1,3.3526794E1,2.7618545E-1,1.17601906E2,2.57275E-1,1.17829315E2,5.315E-1,8.876657E1,5.684039E0,9.6950006E-1,4.788296E1,8.211487E0,-1.4979993E-1,1.6188884E-1,8.366948E0,5E-1,4.9738182E1,5.941983E1,-2.773371E-1,-6.648257E-2,-1.6285804E-1,3.863956E-2,-3.2497805E-1,-7.816523E-2,-2.7990207E-1,-2.149066E-1,-3.124265E-1,-2.4647309E-1,1.0223639E-2,-2.5401518E-1,-2.939015E-1,-2.4754173E-1,-1.311734E-2,-3.0022758E-1,-2.245621E-1,4.991212E-2,1.8676063E-2,1.4206755E-1,3.0775678E-1,-5.155158E-2,-4.455627E-1,1.3647029E-1,-2.2814758E-2,2.3907492E-1,-7.326225E-2,7.084998E-2,-2.3701924E-1,-7.181892E-2,-1.6972937E-1,3.4570966E-2,-2.7066284E-1,-2.0441978E-1,-1.9084857E-1,5.670071E-2,-1.3881356E-1,-4.1783046E-2,-2.5170302E-2,-1.497535E-1,2.2828321E-1,1.0310606E-2],"split_indices":[2,3,3,4,0,3,0,2,3,2,3,0,4,3,7,3,6,3,3,3,0,4,3,2,3,3,1,4,1,1,2,1,0,3,1,0,1,1,3,0,0,2,2,0,3,0,2,0,2,1,2,3,0,2,3,0,0,3,5,2,2,0,0,0,0,0,0,0,0,0,0,0,0,0,0,0,0,0,0,0,0,0,0,0,0,0,0,0,0,0,0,0,0,0,0,0,0,0,0,0,0,0,0],"split_type":[0,0,0,0,0,0,0,0,0,0,0,0,0,0,0,0,0,0,0,0,0,0,0,0,0,0,0,0,0,0,0,0,0,0,0,0,0,0,0,0,0,0,0,0,0,0,0,0,0,0,0,0,0,0,0,0,0,0,0,0,0,0,0,0,0,0,0,0,0,0,0,0,0,0,0,0,0,0,0,0,0,0,0,0,0,0,0,0,0,0,0,0,0,0,0,0,0,0,0,0,0,0,0],"sum_hessian":[6.675358E3,4.8645586E3,1.8107991E3,1.6710886E3,3.1934702E3,7.4177246E2,1.0690266E3,4.0456308E2,1.2665255E3,7.659224E2,2.4275476E3,1.3503453E2,6.067379E2,2.3921075E2,8.2981586E2,5.163728E1,3.5292578E2,8.136103E2,4.5291525E2,2.5310888E0,7.6339136E2,2.4185623E3,8.985436E0,1.16807785E2,1.8226742E1,2.5295728E2,3.5378064E2,2.3180211E2,7.408643E0,7.3394666E2,9.586918E1,5.04928E1,1.1444789E0,3.3161066E2,2.131514E1,1.3723513E0,8.12238E2,1.12968895E2,3.3994638E2,1.2480328E0,1.283056E0,1.6477646E3,7.707976E2,1.506614E0,7.4788227E0,2.9432044E0,1.13864586E2,1.1368545E1,6.8581967E0,4.1225185E0,2.4883476E2,3.139773E2,3.9803352E1,3.7247715E1,1.945544E2,3.277668E0,4.130975E0,1.7889076E2,5.550559E2,7.957377E1,1.629541E1,4.924388E1,1.2489197E0,3.2070132E2,1.090933E1,2.0048536E1,1.2666036E0,5.8375195E1,7.5386273E2,7.904828E1,3.3920612E1,3.208763E0,3.367376E2,5.8699524E2,1.0607694E3,1.8006849E0,7.689969E2,1.5929714E0,5.885851E0,1.00563866E2,1.3300714E1,2.8325438E0,4.0256534E0,2.9233143E0,1.1992043E0,2.4156665E2,7.2681074E0,2.939712E2,2.0006083E1,2.2654325E1,1.7149027E1,2.9843184E1,7.4045296E0,4.1496384E1,1.5305801E2,1.7698645E2,1.9043138E0,5.17594E2,3.7461914E1,3.1005478E1,4.8568295E1,5.536797E0,1.0758614E1],"tree_param":{"num_deleted":"0","num_feature":"8","num_nodes":"103","size_leaf_vector":"0"}},{"base_weights":[-6.157233E-1,-7.753741E-1,-2.7263927E-1,-6.378069E-1,-8.5662526E-1,-4.6403635E-2,-3.9344344E-1,-4.8224816E-1,-6.916918E-1,-9.8357123E-1,-8.148632E-1,-1.1603389E-1,1.6427784E-1,-5.585931E-1,-3.3924562E-1,-7.4172497E-1,-4.251458E-1,-6.276625E-1,-7.726093E-1,-3.526107E-1,-9.85469E-1,-7.7088535E-1,-9.2561364E-1,-1.3596003E-1,9.250289E-1,-2.3804505E-1,2.2067337E-1,4.611173E-1,-5.67407E-1,-3.324749E-1,-1.0757961E0,-9.5768684E-1,-6.5232956E-1,-3.9351493E-1,-9.1871166E-1,-4.7363168E-1,-6.489751E-1,-8.375395E-1,-7.024043E-1,5.2779935E-2,-6.1850953E-1,-9.167258E-1,-1.0169345E0,-7.772375E-1,-1.3053238E-3,-9.8088765E-1,-8.269173E-1,1.2526693E0,-1.4445305E-1,-1.3806804E-1,1.1770359E0,-4.063701E-1,1.0987315E0,1.625162E-1,5.9076184E-1,-5.1339215E-1,-7.655138E-1,-3.387922E-1,3.748503E-1,-1.705581E-1,-1.0028101E0,7.6715505E-1,-7.161677E-1,-7.1642894E-1,-3.5029808E-1,-9.550785E-1,-2.2368363E-1,-3.745372E-1,-8.942891E-1,-4.5550382E-1,-6.693147E-1,-8.512804E-1,-4.4559497E-1,-7.1627647E-1,8.739304E-2,-9.3398535E-1,1.9532326E-1,-8.866896E-1,-7.164695E-1,2.795758E-1,-1.13925494E-1,-9.8796E-1,-3.598361E-1,-2.0571698E-1,-8.5530895E-1,-3.658386E-1,-8.618242E-2,-7.368148E-2,-8.8549775E-1,2.6370347E-1,1.6209316E-2,3.476713E-1,7.701974E-1,-5.5090463E-1,-1.3937625E-1,-1.1049563E0,-6.7549205E-1,-3.6499768E-1,-1.6347948E-1,-2.8772488E-1,7.926401E-1],"categories":[],"categories_nodes":[],"categories_segments":[],"categories_sizes":[],"default_left":[1,1,1,1,1,1,1,1,1,1,1,1,1,1,1,1,1,1,1,1,1,1,1,1,1,1,1,0,1,1,0,1,1,1,1,1,1,1,1,0,0,1,0,1,1,1,1,0,1,0,0,1,0,1,1,1,1,1,1,0,0,0,0,0,0,0,0,0,0,0,0,0,0,0,0,0,0,0,0,0,0,0,0,0,0,0,0,0,0,0,0,0,0,0,0,0,0,0,0,0,0],"id":5,"left_children":[1,3,5,7,9,11,13,15,17,19,21,23,25,27,29,31,33,35,37,39,41,43,45,47,49,51,53,-1,55,57,-1,59,61,63,65,67,69,71,73,-1,-1,75,-1,77,79,81,83,-1,85,-1,-1,87,-1,89,91,93,95,97,99,-1,-1,-1,-1,-1,-1,-1,-1,-1,-1,-1,-1,-1,-1,-1,-1,-1,-1,-1,-1,-1,-1,-1,-1,-1,-1,-1,-1,-1,-1,-1,-1,-1,-1,-1,-1,-1,-1,-1,-1,-1,-1],"loss_changes":[3.1532275E2,4.338965E1,5.002156E1,1.1933655E1,1.228418E1,9.385438E0,1.0492813E1,5.3123627E0,5.1347656E0,3.7835693E-1,8.360718E0,1.0092718E1,3.6604385E0,2.8980713E0,4.136162E0,6.7198944E-1,4.535206E0,1.6979065E0,1.5760803E0,3.9643595E-1,3.7384033E-1,6.5473022E0,2.0505676E0,5.7512608E0,2.614305E0,4.953618E0,2.916902E0,0E0,2.7238388E0,4.1233215E0,0E0,4.514885E-1,5.1382027E0,3.886963E0,2.448988E-1,2.9143085E0,1.7960815E0,9.211731E-1,2.6300125E0,0E0,0E0,4.0161133E0,0E0,8.201416E0,4.104268E-1,1.0978088E0,3.2576752E0,0E0,6.0359783E0,0E0,0E0,2.886909E0,0E0,1.8070872E0,5.4488134E-1,3.1769447E0,1.0982475E0,4.015175E0,2.5510414E0,0E0,0E0,0E0,0E0,0E0,0E0,0E0,0E0,0E0,0E0,0E0,0E0,0E0,0E0,0E0,0E0,0E0,0E0,0E0,0E0,0E0,0E0,0E0,0E0,0E0,0E0,0E0,0E0,0E0,0E0,0E0,0E0,0E0,0E0,0E0,0E0,0E0,0E0,0E0,0E0,0E0,0E0],"parents":[2147483647,0,0,1,1,2,2,3,3,4,4,5,5,6,6,7,7,8,8,9,9,10,10,11,11,12,12,13,13,14,14,15,15,16,16,17,17,18,18,19,19,20,20,21,21,22,22,23,23,24,24,25,25,26,26,28,28,29,29,31,31,32,32,33,33,34,34,35,35,36,36,37,37,38,38,41,41,43,43,44,44,45,45,46,46,48,48,51,51,53,53,54,54,55,55,56,56,57,57,58,58],"right_children":[2,4,6,8,10,12,14,16,18,20,22,24,26,28,30,32,34,36,38,40,42,44,46,48,50,52,54,-1,56,58,-1,60,62,64,66,68,70,72,74,-1,-1,76,-1,78,80,82,84,-1,86,-1,-1,88,-1,90,92,94,96,98,100,-1,-1,-1,-1,-1,-1,-1,-1,-1,-1,-1,-1,-1,-1,-1,-1,-1,-1,-1,-1,-1,-1,-1,-1,-1,-1,-1,-1,-1,-1,-1,-1,-1,-1,-1,-1,-1,-1,-1,-1,-1,-1],"split_conditions":[4.379917E1,1.1218571E1,5.5111947E0,5E-1,7.795E-1,9.7249997E-1,9.245E-1,2.8099056E1,9.76919E0,9.602482E0,5E-1,5.492896E0,4.5049998E-1,4.3811684E1,6.596182E1,8.151373E0,5E-1,7.652951E0,3.6578705E1,3.714143E1,2.6509083E1,3.029276E1,3.08045E1,4.355E-1,4.5999998E-1,5.2297935E0,9.865E-1,1.383352E-1,5.195E-1,6.543382E1,-3.2273886E-1,1.2150656E1,8.285341E0,4.1149998E-1,5.875E-1,4.2386047E1,9.115E-1,1.1181773E1,5.655E-1,1.5833981E-2,-1.8555287E-1,6.615E-1,-3.0508035E-1,1.7530846E1,8.3E-1,6.7700005E-1,3.0992046E1,3.7580082E-1,6.863484E1,-4.142041E-2,3.531108E-1,4.742465E0,3.2961947E-1,9.785E-1,1.2950125E2,5.145E-1,4.431841E1,5E-1,5.6411095E0,-5.1167432E-2,-3.0084306E-1,2.3014653E-1,-2.1485032E-1,-2.1492869E-1,-1.05089426E-1,-2.8652355E-1,-6.710509E-2,-1.1236116E-1,-2.6828673E-1,-1.3665116E-1,-2.0079441E-1,-2.5538412E-1,-1.336785E-1,-2.1488295E-1,2.6217913E-2,-2.8019562E-1,5.859698E-2,-2.660069E-1,-2.1494086E-1,8.387274E-2,-3.417765E-2,-2.96388E-1,-1.0795084E-1,-6.1715096E-2,-2.565927E-1,-1.0975158E-1,-2.5854727E-2,-2.2104446E-2,-2.6564935E-1,7.911104E-2,4.8627947E-3,1.0430139E-1,2.3105922E-1,-1.652714E-1,-4.1812878E-2,-3.3148688E-1,-2.0264763E-1,-1.0949931E-1,-4.9043845E-2,-8.6317465E-2,2.3779203E-1],"split_indices":[2,3,3,4,0,0,0,2,3,2,4,3,1,2,2,3,6,3,2,3,3,3,2,1,1,3,0,0,1,2,0,2,3,1,1,2,0,3,1,0,0,1,0,2,0,1,2,0,2,0,0,3,0,0,2,1,2,7,3,0,0,0,0,0,0,0,0,0,0,0,0,0,0,0,0,0,0,0,0,0,0,0,0,0,0,0,0,0,0,0,0,0,0,0,0,0,0,0,0,0,0],"split_type":[0,0,0,0,0,0,0,0,0,0,0,0,0,0,0,0,0,0,0,0,0,0,0,0,0,0,0,0,0,0,0,0,0,0,0,0,0,0,0,0,0,0,0,0,0,0,0,0,0,0,0,0,0,0,0,0,0,0,0,0,0,0,0,0,0,0,0,0,0,0,0,0,0,0,0,0,0,0,0,0,0,0,0,0,0,0,0,0,0,0,0,0,0,0,0,0,0,0,0,0,0],"sum_hessian":[5.7596934E3,3.9297585E3,1.8299346E3,1.4624756E3,2.467283E3,6.374799E2,1.1924547E3,3.7882022E2,1.0836554E3,6.051694E2,1.8621135E3,4.7946567E2,1.5801424E2,2.9234006E2,9.001146E2,6.616639E1,3.126538E2,6.098462E2,4.7380923E2,2.374907E0,6.0279443E2,1.3385497E3,5.2356384E2,4.7131406E2,8.151634E0,1.9030514E1,1.3898372E2,2.06544E0,2.9027463E2,8.933539E2,6.760734E0,1.6527132E1,4.9639256E1,2.9551276E2,1.714106E1,7.69481E1,5.328981E2,2.404735E2,2.3333574E2,1.2581813E0,1.1167258E0,1.9873965E2,4.0405478E2,1.3275819E3,1.0967801E1,3.2987943E2,1.9368443E2,1.97456E0,4.6933948E2,1.648697E0,6.5029373E0,1.752038E1,1.5101346E0,1.2135297E2,1.7630753E1,2.3090788E2,5.9366737E1,8.8596216E2,7.3917456E0,1.1552262E0,1.5371906E1,1.662188E0,4.7977066E1,3.304262E1,2.6247015E2,1.5933209E1,1.207851E0,6.3807327E1,1.3140766E1,5.29195E1,4.7997858E2,2.3119623E2,9.277269E0,2.2939963E2,3.93612E0,1.9585994E2,2.8797219E0,4.6909003E2,8.584919E2,2.7147055E0,8.253097E0,3.2558102E2,4.29839E0,8.825738E0,1.8485869E2,9.669422E1,3.7264526E2,1.1021345E1,6.499035E0,7.1263824E1,5.008914E1,8.734822E0,8.895929E0,2.0942987E2,2.147801E1,1.0080842E1,4.9285896E1,7.698101E2,1.1615204E2,2.9788644E0,4.412881E0],"tree_param":{"num_deleted":"0","num_feature":"8","num_nodes":"101","size_leaf_vector":"0"}},{"base_weights":[-5.104868E-1,-7.014923E-1,-2.4869731E-1,-8.508374E-1,-6.368028E-1,-3.7698132E-1,-8.418726E-2,7.757704E-2,-8.5754013E-1,-5.6427526E-1,-7.082094E-1,5.2324337E-1,-3.8391733E-1,3.2898504E-2,-1.6129176E-1,-4.6800714E-2,3.3333066E-1,-7.78099E-1,-9.164594E-1,-6.4711916E-1,-4.3242833E-1,-6.1875886E-1,-8.5515875E-1,-4.96301E-2,1.280223E0,-4.6307313E-1,-3.0615097E-1,6.4899415E-2,-3.9499125E-1,-1.8863408E-1,1.2911297E-1,1.9803023E-1,-1.5849806E-1,-7.8445494E-1,3.1424105E-1,-4.9318972E-1,-9.2810327E-1,-6.0017914E-1,-7.6254463E-1,-4.1461134E-1,-9.687483E-1,-3.430833E-1,-6.45921E-1,4.0598443E-1,-8.597053E-1,3.48665E-1,-7.335536E-1,-4.831426E-1,-1.7812836E-1,-3.1644627E-1,6.7364323E-1,2.5782087E-1,1.0062466E-2,-7.4413425E-1,-3.262665E-2,6.862528E-1,-1.9635339E-1,4.0454924E-1,-1.0008603E-1,-2.8643328E-1,-7.9070514E-1,-2.4301223E-1,-8.4102714E-1,-8.5309845E-1,-9.5713824E-1,-6.064168E-1,4.0692064E-1,4.4473165E-1,-7.8538764E-1,-4.532866E-1,-2.1595101E-1,-1.2986885E-1,-1.0377957E0,-9.217479E-1,-2.4430825E-1,-6.5498537E-1,2.6524526E-1,-9.194502E-1,-7.6262325E-1,7.5528467E-1,4.64027E-3,-7.8066194E-1,-4.59568E-1,1.1177942E-1,-4.6023142E-1,-2.9817468E-1,-7.633164E-1,1.2185982E0,6.3210435E-2,1.1065054E0,2.1883932E-1,-7.348299E-1,2.4246188E-2,-4.014329E-1,-1.1779566E0,-2.757493E-1,9.5818156E-1,1.0881803E0,1.13460645E-1,-2.1560603E-1,2.8374742E-3,5.9618795E-1,-5.0488937E-1,7.9928064E-1,-2.7091417E-1],"categories":[],"categories_nodes":[],"categories_segments":[],"categories_sizes":[],"default_left":[1,1,1,1,1,1,1,1,1,1,1,1,1,1,1,1,0,1,1,1,1,1,1,1,0,1,1,1,1,1,1,0,0,1,0,1,1,1,1,1,1,1,1,0,1,1,0,1,1,1,1,1,1,1,1,1,1,1,1,0,0,0,0,0,0,0,0,0,0,0,0,0,0,0,0,0,0,0,0,0,0,0,0,0,0,0,0,0,0,0,0,0,0,0,0,0,0,0,0,0,0,0,0,0,0],"id":6,"left_children":[1,3,5,7,9,11,13,15,17,19,21,23,25,27,29,31,-1,33,35,37,39,41,43,45,-1,47,49,51,53,55,57,-1,-1,59,-1,61,63,65,67,69,71,73,75,-1,77,79,-1,81,83,85,87,89,91,93,95,97,99,101,103,-1,-1,-1,-1,-1,-1,-1,-1,-1,-1,-1,-1,-1,-1,-1,-1,-1,-1,-1,-1,-1,-1,-1,-1,-1,-1,-1,-1,-1,-1,-1,-1,-1,-1,-1,-1,-1,-1,-1,-1,-1,-1,-1,-1,-1,-1],"loss_changes":[2.51854E2,2.7605957E1,4.4871414E1,5.527893E0,1.0149475E1,7.6636353E0,8.432936E0,2.4487354E-1,3.3655396E0,1.0811615E1,1.2911011E1,4.209894E0,7.1627197E0,5.1123824E0,4.494976E0,1.879806E-1,0E0,2.8688354E0,1.9803772E0,2.9102478E0,3.3714066E0,4.5646973E0,2.5524292E0,2.000577E0,0E0,3.2657166E0,6.28088E0,3.6630898E0,3.2639904E0,3.6127014E0,3.1365237E0,0E0,0E0,9.432831E-1,0E0,1.1338739E0,2.295227E-1,3.0522308E0,5.203209E0,2.8517456E0,5.572424E-1,3.1736398E0,4.9701385E0,0E0,1.5214844E0,6.575623E-1,0E0,3.477562E0,3.334999E0,4.6383095E0,2.1100125E0,2.2936912E0,2.8794155E0,1.4882531E0,3.5884056E0,9.6468306E-1,1.9612598E0,4.217647E0,4.4522552E0,0E0,0E0,0E0,0E0,0E0,0E0,0E0,0E0,0E0,0E0,0E0,0E0,0E0,0E0,0E0,0E0,0E0,0E0,0E0,0E0,0E0,0E0,0E0,0E0,0E0,0E0,0E0,0E0,0E0,0E0,0E0,0E0,0E0,0E0,0E0,0E0,0E0,0E0,0E0,0E0,0E0,0E0,0E0,0E0,0E0,0E0],"parents":[2147483647,0,0,1,1,2,2,3,3,4,4,5,5,6,6,7,7,8,8,9,9,10,10,11,11,12,12,13,13,14,14,15,15,17,17,18,18,19,19,20,20,21,21,22,22,23,23,25,25,26,26,27,27,28,28,29,29,30,30,33,33,35,35,36,36,37,37,38,38,39,39,40,40,41,41,42,42,44,44,45,45,47,47,48,48,49,49,50,50,51,51,52,52,53,53,54,54,55,55,56,56,57,57,58,58],"right_children":[2,4,6,8,10,12,14,16,18,20,22,24,26,28,30,32,-1,34,36,38,40,42,44,46,-1,48,50,52,54,56,58,-1,-1,60,-1,62,64,66,68,70,72,74,76,-1,78,80,-1,82,84,86,88,90,92,94,96,98,100,102,104,-1,-1,-1,-1,-1,-1,-1,-1,-1,-1,-1,-1,-1,-1,-1,-1,-1,-1,-1,-1,-1,-1,-1,-1,-1,-1,-1,-1,-1,-1,-1,-1,-1,-1,-1,-1,-1,-1,-1,-1,-1,-1,-1,-1,-1,-1],"split_conditions":[4.0023098E1,1.7265682E1,5.398847E1,2.3790279E-1,5E-1,4.008548E1,5E-1,9.9549997E-1,2.4928751E1,8.925E-1,1.1322472E1,4.0068665E1,9.2550004E-1,5E-1,9.735E-1,9.94E-1,9.9999204E-2,2.4907593E1,9.988028E0,1.9611576E1,5E-1,7.8855E0,1.7559757E1,5.195E-1,3.840669E-1,5E-1,8.808254E0,3.5759077E0,5.0049996E-1,5.4095528E1,9.775E-1,5.940907E-2,-4.7549423E-2,2.415E-1,9.427232E-2,8.5150003E-1,2.6509083E1,1.9568409E1,3.58E-1,3.7578674E1,7.65979E0,2.7286917E1,9.6950006E-1,1.21795334E-1,3.0625015E1,9.0599996E-1,-2.2006609E-1,4.0575394E1,5.035E-1,8.498802E0,4.355E-1,9.2056465E1,3.636724E0,4.8549998E-1,1.0541619E2,5.085E-1,6.8114257E0,1.0665692E2,2.260578E0,-8.592999E-2,-2.3721156E-1,-7.290367E-2,-2.5230816E-1,-2.5592956E-1,-2.8714147E-1,-1.8192506E-1,1.220762E-1,1.334195E-1,-2.356163E-1,-1.3598599E-1,-6.478531E-2,-3.8960658E-2,-3.1133872E-1,-2.765244E-1,-7.329248E-2,-1.9649562E-1,7.957358E-2,-2.7583507E-1,-2.2878699E-1,2.265854E-1,1.392081E-3,-2.3419859E-1,-1.378704E-1,3.3533826E-2,-1.3806944E-1,-8.945241E-2,-2.2899492E-1,3.655795E-1,1.8963132E-2,3.3195162E-1,6.56518E-2,-2.2044899E-1,7.2738566E-3,-1.2042987E-1,-3.53387E-1,-8.2724795E-2,2.874545E-1,3.264541E-1,3.4038194E-2,-6.468181E-2,8.512423E-4,1.7885639E-1,-1.5146682E-1,2.397842E-1,-8.1274256E-2],"split_indices":[2,2,2,2,4,2,4,0,3,0,3,2,0,6,0,1,0,3,2,3,6,3,2,1,0,5,3,3,1,2,0,0,0,1,0,0,3,3,1,2,3,2,0,0,2,0,0,2,1,3,1,2,3,1,2,1,3,2,3,0,0,0,0,0,0,0,0,0,0,0,0,0,0,0,0,0,0,0,0,0,0,0,0,0,0,0,0,0,0,0,0,0,0,0,0,0,0,0,0,0,0,0,0,0,0],"split_type":[0,0,0,0,0,0,0,0,0,0,0,0,0,0,0,0,0,0,0,0,0,0,0,0,0,0,0,0,0,0,0,0,0,0,0,0,0,0,0,0,0,0,0,0,0,0,0,0,0,0,0,0,0,0,0,0,0,0,0,0,0,0,0,0,0,0,0,0,0,0,0,0,0,0,0,0,0,0,0,0,0,0,0,0,0,0,0,0,0,0,0,0,0,0,0,0,0,0,0,0,0,0,0,0,0],"sum_hessian":[5.039241E3,2.9125337E3,2.1267073E3,8.766067E2,2.035927E3,1.1941918E3,9.3251556E2,6.2075763E0,8.703991E2,1.014452E3,1.021475E3,8.561449E0,1.1856302E3,3.70489E2,5.620266E2,4.7261634E0,1.4814126E0,3.766993E2,4.9369983E2,6.205998E2,3.938523E2,6.3820154E2,3.8327338E2,5.405253E0,3.156196E0,5.851107E2,6.0051953E2,3.454983E2,2.4990713E1,5.139842E2,4.804241E1,1.238519E0,3.4876444E0,3.7480032E2,1.8989815E0,1.4378501E1,4.7932132E2,4.455911E2,1.7500865E2,3.8290494E2,1.0947361E1,5.8464172E1,5.7973737E2,1.059628E0,3.8221375E2,3.725715E0,1.679538E0,5.4596155E2,3.914917E1,5.949451E2,5.574434E0,7.565066E1,2.6984763E2,1.2190988E1,1.2799726E1,3.7265396E0,5.1025763E2,2.147278E1,2.6569632E1,5.2258496E0,3.6957446E2,9.351322E0,5.0271783E0,1.4224594E2,3.3707538E2,4.4324365E2,2.34747E0,2.9068964E0,1.7210176E2,3.1943542E2,6.346951E1,1.05163E0,9.895731E0,7.3096232E0,5.1154552E1,5.743053E2,5.4320946E0,2.3136162E2,1.5085214E2,1.1596411E0,2.566074E0,3.7726486E1,5.0823508E2,1.9605265E1,1.9543905E1,5.7317633E2,2.1768745E1,2.4187996E0,3.1556342E0,2.1195557E0,7.3531105E1,4.092867E0,2.6575476E2,7.886403E0,4.304585E0,1.085728E1,1.9424462E0,1.6611385E0,2.065401E0,4.6521063E2,4.5047016E1,1.8020012E1,3.4527688E0,3.6539025E0,2.2915728E1],"tree_param":{"num_deleted":"0","num_feature":"8","num_nodes":"105","size_leaf_vector":"0"}},{"base_weights":[-4.152664E-1,-6.3061875E-1,-2.1109329E-1,-8.4459895E-1,-5.8508575E-1,-3.4463756E-2,-2.9830042E-1,-7.577796E-1,-8.9064586E-1,-3.8258037E-1,-6.0183775E-1,4.215963E-2,-1.037251E-1,-3.830707E-1,-2.2783375E-1,-7.7909136E-1,8.642762E-2,-2.7166113E-1,-8.95045E-1,-4.0782252E-1,9.1832286E-1,-5.487407E-1,-6.963631E-1,9.294345E-3,4.14997E-1,-7.795814E-1,-8.855387E-2,-4.9793798E-1,-3.3336455E-1,-1.5807512E-1,-3.249221E-1,-7.917476E-1,4.3917802E-1,4.8800415E-1,-5.659414E-1,-7.684613E-1,-9.233742E-1,-9.1053957E-1,-3.485043E-1,-6.28786E-1,-4.256656E-1,-7.8594327E-1,-6.183875E-1,-3.7616554E-1,3.7210353E-2,-9.348394E-2,9.2230934E-1,-8.4342176E-1,-2.549189E-1,-1.7225082E-1,-6.5595354E-3,2.1622697E-1,-5.0873023E-1,-1.275153E-1,-3.8582057E-1,-2.0819654E-1,1.5872271E-1,-3.7925315E-1,-4.581351E-2,-8.749458E-1,-7.131668E-1,-8.8769734E-1,-3.2600904E-1,-6.880279E-2,-9.703176E-1,-4.0149286E-1,1.9027181E-1,-6.403747E-1,5.0633654E-2,-4.4071454E-1,4.3093088E-1,-8.752374E-1,-6.725055E-1,-6.340226E-1,1.4559484E-1,-6.527701E-1,-3.0600373E-2,2.2487922E-1,-4.392856E-2,-4.6512413E-1,2.3279142E-1,3.9950395E-1,1.0704055E0,-3.690488E-1,-9.76854E-1,-3.1923762E-1,-5.8601275E-2,3.438389E-1,-6.568167E-2,6.4469105E-1,-2.696435E-1,-6.600602E-1,-4.672798E-1,-1.4105746E-2,-6.0880095E-1,-3.9814413E-1,1.3664743E-1,-9.624028E-1,-1.951258E-1,-5.1243025E-1,2.8124562E-1,6.2068737E-1,-3.859421E-1,9.271404E-1,-1.2848328E-1],"categories":[],"categories_nodes":[],"categories_segments":[],"categories_sizes":[],"default_left":[1,1,1,1,1,1,1,1,1,1,1,1,1,1,1,1,1,0,1,1,0,1,1,1,1,1,1,1,1,1,1,1,0,0,0,1,0,1,1,1,1,1,1,1,1,1,1,1,0,1,1,1,1,1,1,1,1,1,1,0,0,0,0,0,0,0,0,0,0,0,0,0,0,0,0,0,0,0,0,0,0,0,0,0,0,0,0,0,0,0,0,0,0,0,0,0,0,0,0,0,0,0,0,0,0],"id":7,"left_children":[1,3,5,7,9,11,13,15,17,19,21,23,25,27,29,31,33,-1,35,37,-1,39,41,43,45,47,49,51,53,55,57,59,-1,-1,-1,61,-1,63,65,67,69,71,73,75,77,79,81,83,-1,85,87,89,91,93,95,97,99,101,103,-1,-1,-1,-1,-1,-1,-1,-1,-1,-1,-1,-1,-1,-1,-1,-1,-1,-1,-1,-1,-1,-1,-1,-1,-1,-1,-1,-1,-1,-1,-1,-1,-1,-1,-1,-1,-1,-1,-1,-1,-1,-1,-1,-1,-1,-1],"loss_changes":[1.9708075E2,2.0769104E1,3.5477562E1,8.468628E-1,5.885254E0,4.0517864E0,9.125336E0,2.561409E0,4.1862488E-1,4.9875126E0,7.9657593E0,4.4415874E0,4.0411873E0,3.8227768E0,5.669216E0,2.4340515E0,1.4062216E0,0E0,1.5420532E-1,3.8127174E0,0E0,1.0270782E1,3.666748E0,3.612591E0,7.661514E0,7.547903E-2,2.6971722E0,1.720665E0,5.248665E0,7.868185E0,5.323452E0,2.5389862E-1,0E0,0E0,0E0,2.3489742E0,0E0,6.375437E-1,3.6593056E0,5.1193237E0,5.6640167E0,2.176529E0,3.9450073E0,2.1473567E0,4.7722282E0,1.9967617E0,7.176533E-1,1.0146713E-1,0E0,3.2309585E0,4.1586413E0,9.675566E-1,9.847641E-1,5.5113325E0,2.5687103E0,4.0164127E0,5.733623E0,2.210495E0,4.8265176E0,0E0,0E0,0E0,0E0,0E0,0E0,0E0,0E0,0E0,0E0,0E0,0E0,0E0,0E0,0E0,0E0,0E0,0E0,0E0,0E0,0E0,0E0,0E0,0E0,0E0,0E0,0E0,0E0,0E0,0E0,0E0,0E0,0E0,0E0,0E0,0E0,0E0,0E0,0E0,0E0,0E0,0E0,0E0,0E0,0E0,0E0],"parents":[2147483647,0,0,1,1,2,2,3,3,4,4,5,5,6,6,7,7,8,8,9,9,10,10,11,11,12,12,13,13,14,14,15,15,16,16,18,18,19,19,21,21,22,22,23,23,24,24,25,25,26,26,27,27,28,28,29,29,30,30,31,31,35,35,37,37,38,38,39,39,40,40,41,41,42,42,43,43,44,44,45,45,46,46,47,47,49,49,50,50,51,51,52,52,53,53,54,54,55,55,56,56,57,57,58,58],"right_children":[2,4,6,8,10,12,14,16,18,20,22,24,26,28,30,32,34,-1,36,38,-1,40,42,44,46,48,50,52,54,56,58,60,-1,-1,-1,62,-1,64,66,68,70,72,74,76,78,80,82,84,-1,86,88,90,92,94,96,98,100,102,104,-1,-1,-1,-1,-1,-1,-1,-1,-1,-1,-1,-1,-1,-1,-1,-1,-1,-1,-1,-1,-1,-1,-1,-1,-1,-1,-1,-1,-1,-1,-1,-1,-1,-1,-1,-1,-1,-1,-1,-1,-1,-1,-1,-1,-1,-1],"split_conditions":[3.7156605E1,7.795E-1,5.994838E0,2.6670153E1,8.95986E0,4.7024403E0,9.245E-1,6.615E-1,9.602482E0,6.2049997E-1,5E-1,4.595258E0,4.7307396E0,4.795E-1,9.3649995E-1,2.6643734E1,2.645978E1,-8.149834E-2,3.775E-1,2.1253819E1,2.7549687E-1,2.264867E1,3.0623844E1,7.5522705E1,9.5949996E-1,5.3550005E-1,5.0049996E-1,3.72716E1,5E-1,9.345E-1,5E-1,1.599618E1,1.3175341E-1,1.4640126E-1,-1.6978243E-1,1.3753429E1,-2.7701226E-1,1.0093878E1,9.775E-1,3.029276E1,6.285E-1,9.125E-1,5.985E-1,5.4550004E-1,4.8549998E-1,4.975E-1,4.525E-1,5E-1,-7.647567E-2,5.251768E0,4.9127207E0,9.0849996E-1,4.4849998E-1,1.0174526E1,1.0669525E1,7.035161E0,6.8164234E0,3.7261963E1,3.820628E1,-2.6248375E-1,-2.1395004E-1,-2.663092E-1,-9.780271E-2,-2.0640837E-2,-2.910953E-1,-1.2044787E-1,5.7081547E-2,-1.9211243E-1,1.5190097E-2,-1.3221437E-1,1.2927927E-1,-2.6257125E-1,-2.0175166E-1,-1.9020678E-1,4.367845E-2,-1.9583105E-1,-9.180112E-3,6.746377E-2,-1.3178568E-2,-1.3953725E-1,6.983743E-2,1.1985119E-1,3.2112166E-1,-1.10714644E-1,-2.9305622E-1,-9.577129E-2,-1.7580383E-2,1.0315167E-1,-1.9704502E-2,1.9340733E-1,-8.089305E-2,-1.9801807E-1,-1.4018394E-1,-4.231724E-3,-1.8264028E-1,-1.19443245E-1,4.099423E-2,-2.8872085E-1,-5.8537744E-2,-1.5372908E-1,8.437369E-2,1.8620622E-1,-1.1578263E-1,2.7814212E-1,-3.8544986E-2],"split_indices":[2,0,3,3,3,3,0,1,2,1,4,3,3,1,0,3,3,0,1,2,0,2,2,2,0,1,1,2,4,0,7,2,0,0,0,2,0,2,0,3,1,0,1,1,1,1,1,4,0,3,3,0,1,3,3,3,3,2,2,0,0,0,0,0,0,0,0,0,0,0,0,0,0,0,0,0,0,0,0,0,0,0,0,0,0,0,0,0,0,0,0,0,0,0,0,0,0,0,0,0,0,0,0,0,0],"split_type":[0,0,0,0,0,0,0,0,0,0,0,0,0,0,0,0,0,0,0,0,0,0,0,0,0,0,0,0,0,0,0,0,0,0,0,0,0,0,0,0,0,0,0,0,0,0,0,0,0,0,0,0,0,0,0,0,0,0,0,0,0,0,0,0,0,0,0,0,0,0,0,0,0,0,0,0,0,0,0,0,0,0,0,0,0,0,0,0,0,0,0,0,0,0,0,0,0,0,0,0,0,0,0,0,0],"sum_hessian":[4.4842793E3,2.181376E3,2.3029033E3,3.7965512E2,1.801721E3,7.6165015E2,1.5412532E3,1.3762537E2,2.4202977E2,1.3947922E2,1.6622417E3,3.6179257E2,3.9985757E2,6.976068E2,8.436463E2,1.3431184E2,3.3135223E0,2.1508076E0,2.3987895E2,1.3749779E2,1.9814379E0,1.0687213E3,5.935204E2,3.3342627E2,2.8366302E1,7.672517E0,3.9218506E2,2.0797481E2,4.8963202E2,4.924477E2,3.5119864E2,1.3327737E2,1.0344806E0,2.2069492E0,1.1065732E0,4.901058E1,1.9086838E2,1.2997235E1,1.2450055E2,6.450718E2,4.236495E2,2.719819E2,3.215385E2,2.1674416E1,3.1175186E2,1.4574228E1,1.3792074E1,6.2985635E0,1.3739531E0,1.9353276E2,1.9865228E2,2.8126972E0,2.0516211E2,1.0013004E2,3.8950195E2,4.2547498E2,6.69727E1,2.936736E2,5.7525032E1,5.9814217E1,7.346315E1,3.7813847E1,1.1196732E1,1.0044537E0,1.1992782E1,1.1358434E2,1.0916204E1,6.3431E2,1.0761796E1,4.1681235E2,6.8371754E0,1.4842868E2,1.2355321E2,3.152568E2,6.281702E0,1.1544628E1,1.0129787E1,9.3566734E1,2.1818512E2,6.614501E0,7.959728E0,3.8607059E0,9.931368E0,2.2094455E0,4.089118E0,8.360049E1,1.09932274E2,2.7984016E1,1.7066826E2,1.3209453E0,1.4917519E0,4.0903812E1,1.642583E2,8.1868065E1,1.826198E1,3.807589E2,8.743066E0,6.0107865E0,4.194642E2,9.847574E0,5.712513E1,1.3414781E0,2.9233212E2,3.7050235E0,5.3820007E1],"tree_param":{"num_deleted":"0","num_feature":"8","num_nodes":"105","size_leaf_vector":"0"}},{"base_weights":[-3.3138835E-1,-5.330094E-1,-1.5416631E-1,-6.904999E-1,-4.6238086E-1,-2.3882836E-1,-3.6993265E-2,-7.802249E-1,-5.9732264E-1,-3.869143E-1,-5.55969E-1,-1.2079279E-1,-2.7345228E-1,4.7375765E-1,-4.4863563E-2,-6.803422E-1,-8.25135E-1,-6.217701E-1,3.6629528E-2,-3.1724632E-1,-5.0537384E-1,-4.4920892E-1,-6.9185597E-1,-3.444222E-1,-5.8915105E-2,-3.5711816E-1,-2.1002948E-1,3.0017433E-1,9.312243E-1,2.2027206E-2,-8.921973E-2,-7.101245E-1,2.6510155E-1,-2.2449069E-1,-8.302421E-1,-7.3367727E-1,-5.500562E-1,-2.1413358E-1,1.6244677E-1,-3.2405415E-1,1.3345653E0,-5.226755E-1,-2.8187538E-2,-4.56181E-1,8.402639E-1,4.3189967E-1,-6.9810826E-1,-5.5911034E-1,-1.3756558E-2,-1.8402722E-1,2.0591447E-1,2.3507228E-1,-3.7266213E-1,5.7086897E-1,-2.1869944E-1,5.2677363E-1,-6.991758E-1,2.9361617E-2,-8.512936E-1,-1.02561295E-1,2.800362E-1,-7.27722E-1,4.6063542E-1,-9.719572E-2,4.5140356E-1,-7.255032E-1,-8.705716E-1,-9.206579E-1,-6.583503E-1,-6.027723E-1,-1.9308287E-1,-6.631527E-1,1.6879317E-1,6.455247E-1,-8.9442946E-2,-3.7564912E-1,-1.8313469E-1,-4.7724187E-1,-7.4806064E-1,-3.3440188E-1,1.3880955E0,-1.6993406E-1,-4.909359E-1,-7.7627814E-1,-5.831447E-1,-3.9518258E-1,-8.4857583E-1,-3.7785712E-1,4.726245E-1,-3.48095E-2,-3.6630708E-1,1.7052392E0,1.1618071E-1,8.4455717E-1,-4.9257692E-2,-6.447528E-1,-3.458954E-1,-6.4367205E-2,1.0998504E0,-2.1060447E-1,-7.4256176E-1,1.2122822E-1,7.395751E-1,1.0141209E0,1.7226513E-2,-7.3766306E-2,-5.682553E-1,9.052594E-1,-1.82057E-1],"categories":[],"categories_nodes":[],"categories_segments":[],"categories_sizes":[],"default_left":[1,1,1,1,1,1,1,1,1,1,1,1,1,1,1,1,1,1,1,1,1,1,1,1,1,1,1,1,0,1,1,1,1,0,1,1,1,1,1,1,0,1,1,1,0,0,1,1,1,1,1,1,1,1,1,1,0,1,0,1,1,0,0,0,0,0,0,0,0,0,0,0,0,0,0,0,0,0,0,0,0,0,0,0,0,0,0,0,0,0,0,0,0,0,0,0,0,0,0,0,0,0,0,0,0,0,0,0,0],"id":8,"left_children":[1,3,5,7,9,11,13,15,17,19,21,23,25,27,29,31,33,35,37,39,41,43,45,47,49,51,53,55,-1,57,59,61,63,-1,65,67,69,71,73,75,-1,77,79,81,-1,-1,83,85,87,89,91,93,95,97,99,101,-1,103,-1,105,107,-1,-1,-1,-1,-1,-1,-1,-1,-1,-1,-1,-1,-1,-1,-1,-1,-1,-1,-1,-1,-1,-1,-1,-1,-1,-1,-1,-1,-1,-1,-1,-1,-1,-1,-1,-1,-1,-1,-1,-1,-1,-1,-1,-1,-1,-1,-1,-1],"loss_changes":[1.4519159E2,2.0831848E1,2.1469906E1,4.4389954E0,9.078125E0,5.103264E0,3.6767845E0,7.6472473E-1,4.5496063E0,5.878395E0,8.177307E0,3.9488482E0,5.0771484E0,8.2320786E-1,2.6619048E0,2.930561E0,4.2477417E-1,1.8538895E0,4.0675828E-1,5.6438446E0,2.2085114E0,3.3547363E0,2.0972137E0,4.3908E0,7.5219483E0,3.9282188E0,3.8804588E0,2.9821715E0,0E0,2.319716E0,2.6853042E0,2.2860527E0,2.9377416E-1,0E0,2.013092E-1,8.990288E-1,3.1848602E0,8.6339045E-1,1.0822328E0,3.2927055E0,0E0,2.3034286E0,5.008795E0,3.193451E0,0E0,0E0,1.8348389E0,1.4461126E0,4.679652E0,4.174117E0,9.615776E0,1.9971819E0,2.7407722E0,2.2106528E0,2.1731987E0,7.7157974E-1,0E0,4.239616E0,0E0,6.9468803E0,5.674991E0,0E0,0E0,0E0,0E0,0E0,0E0,0E0,0E0,0E0,0E0,0E0,0E0,0E0,0E0,0E0,0E0,0E0,0E0,0E0,0E0,0E0,0E0,0E0,0E0,0E0,0E0,0E0,0E0,0E0,0E0,0E0,0E0,0E0,0E0,0E0,0E0,0E0,0E0,0E0,0E0,0E0,0E0,0E0,0E0,0E0,0E0,0E0,0E0],"parents":[2147483647,0,0,1,1,2,2,3,3,4,4,5,5,6,6,7,7,8,8,9,9,10,10,11,11,12,12,13,13,14,14,15,15,16,16,17,17,18,18,19,19,20,20,21,21,22,22,23,23,24,24,25,25,26,26,27,27,29,29,30,30,31,31,32,32,34,34,35,35,36,36,37,37,38,38,39,39,41,41,42,42,43,43,46,46,47,47,48,48,49,49,50,50,51,51,52,52,53,53,54,54,55,55,57,57,59,59,60,60],"right_children":[2,4,6,8,10,12,14,16,18,20,22,24,26,28,30,32,34,36,38,40,42,44,46,48,50,52,54,56,-1,58,60,62,64,-1,66,68,70,72,74,76,-1,78,80,82,-1,-1,84,86,88,90,92,94,96,98,100,102,-1,104,-1,106,108,-1,-1,-1,-1,-1,-1,-1,-1,-1,-1,-1,-1,-1,-1,-1,-1,-1,-1,-1,-1,-1,-1,-1,-1,-1,-1,-1,-1,-1,-1,-1,-1,-1,-1,-1,-1,-1,-1,-1,-1,-1,-1,-1,-1,-1,-1,-1,-1],"split_conditions":[3.757799E1,1.7265682E1,5.3803963E1,7.795E-1,5E-1,5E-1,2.2263846E0,2.6509083E1,3.029276E1,1.6094559E1,1.1322472E1,7.251115E0,4.395159E1,2.1027498E0,5E-1,6.615E-1,9.602482E0,1.3891415E1,8.095E-1,1.6084137E1,8.765E-1,1.1315025E1,1.7580755E1,9.635E-1,9.2649996E-1,3.768353E1,4.403192E1,2.0837913E0,2.793673E-1,7.123987E0,5.545E-1,2.6484861E1,1.4338027E1,-6.7347206E-2,4.26E-1,8.175E-1,6.9350004E-1,3.2370033E1,3.33946E1,5.805E-1,4.003696E-1,6.065E-1,1.723082E1,7.8855E0,2.520792E-1,1.295699E-1,3.0625015E1,7.0882664E0,4.769585E1,9.175E-1,3.82023E1,9.015E-1,3.819062E1,4.3982243E1,8.953579E0,1.516906E0,-2.0975274E-1,5.425013E1,-2.553881E-1,5.445E-1,5.575E-1,-2.183166E-1,1.3819063E-1,-2.9158717E-2,1.3542107E-1,-2.1765096E-1,-2.611715E-1,-2.7619737E-1,-1.975051E-1,-1.808317E-1,-5.7924863E-2,-1.9894582E-1,5.0637953E-2,1.9365741E-1,-2.6832884E-2,-1.1269474E-1,-5.494041E-2,-1.4317256E-1,-2.2441821E-1,-1.0032057E-1,4.1642866E-1,-5.098022E-2,-1.4728077E-1,-2.3288345E-1,-1.7494342E-1,-1.1855478E-1,-2.5457275E-1,-1.1335714E-1,1.4178737E-1,-1.044285E-2,-1.0989213E-1,5.1157176E-1,3.4854215E-2,2.5336716E-1,-1.4777308E-2,-1.9342585E-1,-1.03768624E-1,-1.9310161E-2,3.2995513E-1,-6.318135E-2,-2.2276853E-1,3.6368467E-2,2.2187254E-1,3.042363E-1,5.167954E-3,-2.2129893E-2,-1.704766E-1,2.7157784E-1,-5.46171E-2],"split_indices":[2,2,2,0,4,4,3,3,3,3,3,3,2,3,4,1,2,2,1,3,0,3,2,0,0,2,2,3,0,3,1,3,2,0,1,0,1,3,3,1,0,1,3,3,0,0,2,3,2,0,2,0,2,2,3,3,0,2,0,1,1,0,0,0,0,0,0,0,0,0,0,0,0,0,0,0,0,0,0,0,0,0,0,0,0,0,0,0,0,0,0,0,0,0,0,0,0,0,0,0,0,0,0,0,0,0,0,0,0],"split_type":[0,0,0,0,0,0,0,0,0,0,0,0,0,0,0,0,0,0,0,0,0,0,0,0,0,0,0,0,0,0,0,0,0,0,0,0,0,0,0,0,0,0,0,0,0,0,0,0,0,0,0,0,0,0,0,0,0,0,0,0,0,0,0,0,0,0,0,0,0,0,0,0,0,0,0,0,0,0,0,0,0,0,0,0,0,0,0,0,0,0,0,0,0,0,0,0,0,0,0,0,0,0,0,0,0,0,0,0,0],"sum_hessian":[4.0646838E3,1.9005116E3,2.164172E3,5.8570526E2,1.3148064E3,1.2557826E3,9.083896E2,2.9462387E2,2.910814E2,7.307149E2,5.8409143E2,2.8583585E2,9.699468E2,1.2886882E1,8.955027E2,9.6391785E1,1.9823209E2,2.8029156E2,1.0789833E1,4.624302E2,2.682847E2,3.2951364E2,2.545778E2,6.0959312E1,2.2487653E2,4.162323E2,5.537145E2,1.0542683E1,2.344199E0,3.5725385E2,5.3824884E2,9.3689384E1,2.702398E0,2.0503314E0,1.9618175E2,1.05863884E2,1.7442767E2,3.3704114E0,7.419422E0,4.613327E2,1.0975283E0,2.5880566E2,9.479036E0,3.283843E2,1.1293186E0,1.0318947E0,2.535459E2,3.654271E1,2.4416603E1,1.529325E2,7.194403E1,1.0284705E1,4.059476E2,5.3680935E0,5.483464E2,8.979496E0,1.563187E0,3.5523682E2,2.017006E0,5.2017664E2,1.8072224E1,9.267482E1,1.0145606E0,1.0801481E0,1.62225E0,5.9818317E1,1.3636343E2,2.7178308E1,7.868558E1,1.5138353E2,2.3044142E1,1.2144957E0,2.1559157E0,2.007219E0,5.412203E0,3.3647357E2,1.2485913E2,2.1798181E2,4.0823837E1,8.422004E0,1.0570326E0,3.6191875E1,2.9219244E2,1.4750017E2,1.0604574E2,2.4840473E1,1.1702237E1,1.4091188E1,1.0325414E1,8.4747536E1,6.818496E1,3.0460188E0,6.889801E1,2.6448684E0,7.6398363E0,3.429026E1,3.7165732E2,2.83816E0,2.5299332E0,5.413827E2,6.963678E0,3.630453E0,5.349043E0,3.3191574E0,3.5191766E2,4.9097675E2,2.919988E1,7.2728467E0,1.07993765E1],"tree_param":{"num_deleted":"0","num_feature":"8","num_nodes":"109","size_leaf_vector":"0"}},{"base_weights":[-2.5905725E-1,-1.15491815E-1,-4.494039E-1,-2.0179226E-1,-4.3899707E-2,-6.971244E-1,-4.0394604E-1,-1.9428547E-1,-9.665735E-1,2.8331673E-2,-8.3518185E-2,-7.379026E-1,-5.2771646E-1,-3.5380608E-1,-4.8940024E-1,-4.9649203E-1,-1.802177E-1,1.1841461E-2,5.689907E-1,-5.150695E-1,-7.216335E-2,-4.9824726E-2,-7.413151E-1,1.0231009E0,-6.2400097E-1,-2.866564E-1,-5.065234E-1,-5.81838E-1,-3.684432E-1,9.4221406E-2,-5.786723E-1,-1.7442067E-1,-7.3702735E-1,-4.641044E-3,3.6966306E-1,1.9820191E-1,1.1312234E0,-7.26657E-1,-1.7437352E-2,3.0878514E-1,-8.374337E-2,-7.492229E-1,-3.2619146E-1,1.8928331E0,-5.257105E-1,-4.516223E-1,-8.860503E-1,-7.03471E-1,-2.634221E-1,-6.544485E-1,-3.7562183E-1,-9.865621E-1,-5.5317783E-1,7.6603997E-1,-3.898081E-1,1.1820061E0,-8.048563E-1,-9.7458625E-1,-4.2785788E-1,-1.8339956E-1,4.2551023E-1,-8.572887E-1,-2.0485196E-1,-2.5579318E-1,1.6568532E-2,5.6262356E-1,-3.8922995E-3,-3.1956026E-1,8.283981E-1,-4.154898E-1,-8.845719E-1,4.434548E-1,-9.5653117E-1,5.279091E-1,-4.3165493E-1,3.1968373E-1,-9.457696E-2,-9.110938E-1,-7.075878E-1,-5.8696645E-1,2.9527146E-1,3.667835E-1,-5.360901E-1,-9.3270725E-1,-6.9460265E-2,-5.162065E-1,-9.6834236E-1,1.165327E0,-2.709212E-1,-5.4702395E-1,-8.9894956E-1,-1.28561E-1,-5.096944E-1,4.2818728E-1,-5.5865574E-1,-1.3921322E-1,1.1645701E0,-7.835431E-1,-3.6160055E-1],"categories":[],"categories_nodes":[],"categories_segments":[],"categories_sizes":[],"default_left":[1,1,1,1,1,1,1,1,0,1,1,1,1,1,1,1,1,1,1,1,1,0,1,1,1,1,1,1,1,1,1,1,1,1,1,1,0,1,1,1,1,1,1,0,0,1,1,1,1,1,1,0,1,1,1,0,0,0,0,0,0,0,0,0,0,0,0,0,0,0,0,0,0,0,0,0,0,0,0,0,0,0,0,0,0,0,0,0,0,0,0,0,0,0,0,0,0,0,0],"id":9,"left_children":[1,3,5,7,9,11,13,15,-1,17,19,21,23,25,27,29,31,33,35,37,39,-1,41,43,45,47,49,51,53,55,57,59,61,63,65,67,-1,69,71,73,75,77,79,-1,-1,81,83,85,87,89,91,-1,93,95,97,-1,-1,-1,-1,-1,-1,-1,-1,-1,-1,-1,-1,-1,-1,-1,-1,-1,-1,-1,-1,-1,-1,-1,-1,-1,-1,-1,-1,-1,-1,-1,-1,-1,-1,-1,-1,-1,-1,-1,-1,-1,-1,-1,-1],"loss_changes":[1.0242424E2,1.32069E1,1.7870361E1,5.3787346E0,3.3517392E0,1.3276672E0,5.672821E0,3.9979095E0,0E0,3.6960893E0,3.667839E0,4.2758942E-1,8.363244E0,8.709694E0,5.397545E0,2.1028385E0,2.8418102E0,2.3847184E0,2.33396E0,2.0111747E0,3.2809043E0,0E0,4.0157318E-1,5.579137E0,1.8281822E0,5.64534E0,4.835411E0,2.73423E0,5.634506E0,6.832208E0,1.8030777E0,4.9910507E0,4.1138697E-1,2.067026E0,1.2855816E0,3.0731072E0,0E0,2.9397154E-1,3.3496113E0,3.794316E0,3.163457E0,6.5151215E-1,1.0564585E0,0E0,0E0,2.3946495E0,6.4136696E-1,1.0471964E0,6.4429703E0,2.7086372E0,4.6236305E0,0E0,1.6710434E0,1.7518404E0,2.1238327E0,0E0,0E0,0E0,0E0,0E0,0E0,0E0,0E0,0E0,0E0,0E0,0E0,0E0,0E0,0E0,0E0,0E0,0E0,0E0,0E0,0E0,0E0,0E0,0E0,0E0,0E0,0E0,0E0,0E0,0E0,0E0,0E0,0E0,0E0,0E0,0E0,0E0,0E0,0E0,0E0,0E0,0E0,0E0,0E0],"parents":[2147483647,0,0,1,1,2,2,3,3,4,4,5,5,6,6,7,7,9,9,10,10,11,11,12,12,13,13,14,14,15,15,16,16,17,17,18,18,19,19,20,20,22,22,23,23,24,24,25,25,26,26,27,27,28,28,29,29,30,30,31,31,32,32,33,33,34,34,35,35,37,37,38,38,39,39,40,40,41,41,42,42,45,45,46,46,47,47,48,48,49,49,50,50,52,52,53,53,54,54],"right_children":[2,4,6,8,10,12,14,16,-1,18,20,22,24,26,28,30,32,34,36,38,40,-1,42,44,46,48,50,52,54,56,58,60,62,64,66,68,-1,70,72,74,76,78,80,-1,-1,82,84,86,88,90,92,-1,94,96,98,-1,-1,-1,-1,-1,-1,-1,-1,-1,-1,-1,-1,-1,-1,-1,-1,-1,-1,-1,-1,-1,-1,-1,-1,-1,-1,-1,-1,-1,-1,-1,-1,-1,-1,-1,-1,-1,-1,-1,-1,-1,-1,-1,-1],"split_conditions":[9.770632E0,4.9101795E1,7.795E-1,4.8989E1,4.888685E0,1.599618E1,5E-1,4.015E-1,-2.8997207E-1,4.856756E0,4.946723E0,2.4931019E1,1.6045816E1,1.960902E1,3.4183342E1,9.4649994E-1,9.855E-1,9.865E-1,5.14E-1,5.085E-1,4.942067E1,-1.4947418E-2,7.49E-1,5.285E-1,5E-1,1.4010311E1,5.0250006E-1,8.655E-1,3.4255096E1,9.38863E0,9.5449996E-1,9.775E-1,3.258692E1,7.2559044E1,5E-1,5E-1,3.3936703E-1,4.8E-1,5E-1,7.9452925E0,5.00091E0,1.2780464E1,1.0947176E1,5.6784993E-1,-1.5771316E-1,7.575E-1,1.7644396E1,1.24669075E1,2.935E-1,1.8228985E1,6.235E-1,-2.9596862E-1,9.4283905E0,8.965E-1,9.836717E0,3.5460186E-1,-2.414569E-1,-2.923759E-1,-1.2835737E-1,-5.501987E-2,1.2765308E-1,-2.5718662E-1,-6.145559E-2,-7.6737955E-2,4.97056E-3,1.6878708E-1,-1.1676899E-3,-9.586808E-2,2.4851944E-1,-1.2464694E-1,-2.653716E-1,1.3303645E-1,-2.8695935E-1,1.5837273E-1,-1.2949648E-1,9.5905125E-2,-2.837309E-2,-2.7332816E-1,-2.1227634E-1,-1.7608994E-1,8.858144E-2,1.10035054E-1,-1.6082703E-1,-2.798122E-1,-2.083808E-2,-1.5486196E-1,-2.9050273E-1,3.495981E-1,-8.1276365E-2,-1.6410719E-1,-2.6968488E-1,-3.8568303E-2,-1.5290833E-1,1.2845619E-1,-1.6759673E-1,-4.176397E-2,3.4937105E-1,-2.3506294E-1,-1.0848017E-1],"split_indices":[3,2,0,2,3,2,4,1,0,3,3,3,2,3,2,0,0,0,1,1,2,0,1,1,5,2,1,0,2,3,0,0,2,2,4,7,0,1,5,3,3,2,2,0,0,0,2,2,1,2,1,0,2,0,3,0,0,0,0,0,0,0,0,0,0,0,0,0,0,0,0,0,0,0,0,0,0,0,0,0,0,0,0,0,0,0,0,0,0,0,0,0,0,0,0,0,0,0,0],"split_type":[0,0,0,0,0,0,0,0,0,0,0,0,0,0,0,0,0,0,0,0,0,0,0,0,0,0,0,0,0,0,0,0,0,0,0,0,0,0,0,0,0,0,0,0,0,0,0,0,0,0,0,0,0,0,0,0,0,0,0,0,0,0,0,0,0,0,0,0,0,0,0,0,0,0,0,0,0,0,0,0,0,0,0,0,0,0,0,0,0,0,0,0,0,0,0,0,0,0,0],"sum_hessian":[3.7489678E3,2.1380159E3,1.610952E3,9.686009E2,1.1694149E3,2.475585E2,1.3633936E3,9.6042773E2,8.173132E0,4.1432083E2,7.5509406E2,1.9682503E2,5.073348E1,8.624779E2,5.0091565E2,4.119417E1,9.192336E2,4.0304965E2,1.1271195E1,1.8221138E1,7.368729E2,1.0483401E0,1.9577669E2,2.4030285E0,4.8330452E1,6.010666E2,2.6141135E2,2.8177066E2,2.1914499E2,5.013133E0,3.6181038E1,9.1106165E2,8.171928E0,3.862449E2,1.680475E1,7.6069727E0,3.6642225E0,1.2462148E1,5.758991E0,2.0981398E1,7.1589154E2,1.9132727E2,4.4494214E0,1.3966323E0,1.0063963E0,3.0795979E1,1.7534473E1,3.0190104E1,5.7087646E2,1.2084788E2,1.4056346E2,1.6423521E1,2.6534717E2,3.4064467E0,2.1573854E2,2.1260996E0,2.8870332E0,8.473769E0,2.7707268E1,8.9831134E2,1.2750304E1,6.1673193E0,2.0046096E0,2.9216686E1,3.570282E2,1.074716E1,6.057592E0,4.4466085E0,3.1603644E0,5.417738E0,7.0444098E0,4.2170935E0,1.5418973E0,1.6411617E1,4.5697794E0,1.797619E1,6.9791534E2,3.4871044E1,1.5645622E2,3.173347E0,1.2760746E0,2.5684128E0,2.8227566E1,1.6452255E1,1.0822185E0,1.9413568E1,1.0776534E1,2.1745706E0,5.687019E2,8.620846E1,3.463942E1,5.0135563E1,9.0427895E1,1.0445806E0,2.6430258E2,1.2401514E0,2.1662953E0,1.2632327E1,2.0310622E2],"tree_param":{"num_deleted":"0","num_feature":"8","num_nodes":"99","size_leaf_vector":"0"}},{"base_weights":[-1.9903086E-1,-3.6467853E-1,-8.266572E-2,-6.1690116E-1,-3.2270554E-1,-1.45207E-1,-2.3588052E-2,-5.017202E-1,-6.86408E-1,-2.8286645E-1,-3.943016E-1,-5.5304617E-2,-1.7352363E-1,-7.781019E-2,2.6392063E-2,-5.3099793E-1,2.172749E-1,-4.7431192E-1,-7.398762E-1,-3.6733985E-1,-1.803267E-1,-2.3446931E-1,-4.7173354E-1,-2.4147492E-2,-4.4680274E-1,-1.6588299E-1,-8.176448E-1,-2.5579605E-1,-4.2555545E-2,5.52308E-1,8.311424E-3,-5.497661E-1,4.287418E-1,-1.944413E-1,5.1643544E-1,-6.65781E-1,9.293723E-2,-7.5750047E-1,-2.6919642E-1,-3.8079533E-1,1.7000961E-1,-2.3221853E-1,-1.3971896E-2,6.172243E-1,-2.4701396E-1,-9.580411E-1,-4.4705492E-1,1.3068706E-2,-3.5309812E-1,-5.4677236E-1,3.5832497E-1,5.99083E-1,-1.7109498E-1,-4.1254586E-1,-9.74598E-1,5.8525103E-1,-2.906797E-1,6.648206E-1,-6.265062E-2,8.935241E-1,-2.124271E-1,-2.9055918E-2,1.3783835E-1,-4.5775324E-1,-7.2279656E-1,-8.104915E-1,-4.0963486E-1,8.6391366E-1,-6.115167E-1,-6.647314E-1,-8.9183366E-1,-5.177661E-1,2.3248194E-1,-5.7106245E-1,-3.3788806E-1,7.157357E-2,5.06254E-1,-1.9018239E-1,-5.6685954E-1,5.530705E-1,-8.369546E-2,-1.6076596E-1,-4.2360458E-1,-7.220388E-1,-4.203066E-1,-2.7322626E-2,5.2949136E-1,2.8115427E-1,-5.030701E-1,-2.2412111E-1,-8.188125E-1,1.3694551E0,-2.0799965E-1,-2.327261E-1,-1.08283296E-1,-1.5162736E-1,-6.018112E-1,1.6349124E-2,9.131833E-1,-8.670244E-1,-2.1980555E-1,8.971412E-1,-2.841033E-1,-4.7445487E-2,-5.693783E-1,6.489917E-1,1.4675707E0,-5.1583505E-1,3.714534E-1,-1.815388E-2,-6.935403E-1,-4.9056113E-3,3.398049E-1],"categories":[],"categories_nodes":[],"categories_segments":[],"categories_sizes":[],"default_left":[1,1,1,1,1,1,1,1,1,1,1,1,1,1,1,1,1,1,1,1,1,1,1,1,1,1,1,1,1,1,1,1,0,0,0,1,1,1,1,1,1,1,1,0,1,0,1,1,1,1,0,1,1,1,0,1,1,1,1,1,1,1,1,0,0,0,0,0,0,0,0,0,0,0,0,0,0,0,0,0,0,0,0,0,0,0,0,0,0,0,0,0,0,0,0,0,0,0,0,0,0,0,0,0,0,0,0,0,0,0,0,0,0],"id":10,"left_children":[1,3,5,7,9,11,13,15,17,19,21,23,25,27,29,31,33,35,37,39,41,43,45,47,49,51,53,55,57,59,61,63,-1,-1,-1,65,67,69,71,73,75,77,79,-1,81,-1,83,85,87,89,-1,91,93,95,-1,97,99,101,103,105,107,109,111,-1,-1,-1,-1,-1,-1,-1,-1,-1,-1,-1,-1,-1,-1,-1,-1,-1,-1,-1,-1,-1,-1,-1,-1,-1,-1,-1,-1,-1,-1,-1,-1,-1,-1,-1,-1,-1,-1,-1,-1,-1,-1,-1,-1,-1,-1,-1,-1,-1,-1],"loss_changes":[6.781932E1,1.5173935E1,7.6404963E0,1.3054581E0,3.4454346E0,2.5482674E0,2.888428E0,1.826231E0,1.0757446E0,6.9044495E0,5.375641E0,2.9427762E0,3.62257E0,3.1962404E0,5.272484E0,1.6476059E0,5.795003E-1,3.1155057E0,6.147499E-1,3.2481308E0,3.1516619E0,1.7193899E0,3.1437454E0,2.7633355E0,1.6280143E0,3.1163979E0,1.5093899E-1,2.6434193E0,6.1228547E0,4.99888E0,2.6057012E0,9.001312E-1,0E0,0E0,0E0,4.5169163E-1,4.8583903E0,5.8577347E-1,7.580055E-1,3.3161697E0,3.426436E-1,3.8099937E0,3.5239253E0,0E0,2.1440468E0,0E0,1.7937927E0,4.2572823E0,2.3234E0,1.2404661E0,0E0,3.6036065E0,2.8843346E0,1.1431962E-1,0E0,6.73318E-1,3.1431108E0,2.879074E0,3.185181E0,8.6339474E-1,1.3420503E0,3.0155382E0,3.4763885E0,0E0,0E0,0E0,0E0,0E0,0E0,0E0,0E0,0E0,0E0,0E0,0E0,0E0,0E0,0E0,0E0,0E0,0E0,0E0,0E0,0E0,0E0,0E0,0E0,0E0,0E0,0E0,0E0,0E0,0E0,0E0,0E0,0E0,0E0,0E0,0E0,0E0,0E0,0E0,0E0,0E0,0E0,0E0,0E0,0E0,0E0,0E0,0E0,0E0,0E0],"parents":[2147483647,0,0,1,1,2,2,3,3,4,4,5,5,6,6,7,7,8,8,9,9,10,10,11,11,12,12,13,13,14,14,15,15,16,16,17,17,18,18,19,19,20,20,21,21,22,22,23,23,24,24,25,25,26,26,27,27,28,28,29,29,30,30,31,31,35,35,36,36,37,37,38,38,39,39,40,40,41,41,42,42,44,44,46,46,47,47,48,48,49,49,51,51,52,52,53,53,55,55,56,56,57,57,58,58,59,59,60,60,61,61,62,62],"right_children":[2,4,6,8,10,12,14,16,18,20,22,24,26,28,30,32,34,36,38,40,42,44,46,48,50,52,54,56,58,60,62,64,-1,-1,-1,66,68,70,72,74,76,78,80,-1,82,-1,84,86,88,90,-1,92,94,96,-1,98,100,102,104,106,108,110,112,-1,-1,-1,-1,-1,-1,-1,-1,-1,-1,-1,-1,-1,-1,-1,-1,-1,-1,-1,-1,-1,-1,-1,-1,-1,-1,-1,-1,-1,-1,-1,-1,-1,-1,-1,-1,-1,-1,-1,-1,-1,-1,-1,-1,-1,-1,-1,-1,-1,-1],"split_conditions":[3.7156605E1,7.795E-1,5.0415833E1,2.6670153E1,5E-1,5E-1,5.0049996E-1,6.615E-1,3.775E-1,2.264867E1,1.0338772E1,5E-1,5.030414E1,5.372033E1,5.100592E1,2.6621866E1,1.4338027E1,1.3753429E1,7.49E-1,3.029276E1,5.805E-1,9.115E-1,8.655E-1,1.0162818E1,9.56E-1,3.721826E1,4.9400002E-1,5.665468E0,5.4226936E1,9.355E-1,5E-1,7.715E-1,1.2862255E-1,-5.8332395E-2,1.5493064E-1,1.2835899E1,7.5450003E-1,7.3950005E-1,1.0947176E1,1.410812E1,8.567165E0,5.585E-1,2.3361351E1,1.8516728E-1,3.465278E1,-2.8741235E-1,1.0607795E1,9.897212E0,4.6649998E-1,9.2350006E-1,1.074975E-1,5.2599996E-1,4.395159E1,9.3649995E-1,-2.923794E-1,5.3941417E0,4.385E-1,9.455E-1,5E-1,5.0910336E1,9.645E-1,5.655E-1,9.6449995E-1,-1.3732597E-1,-2.1683897E-1,-2.4314746E-1,-1.22890465E-1,2.591741E-1,-1.8345502E-1,-1.9941942E-1,-2.675501E-1,-1.5532984E-1,6.974459E-2,-1.7131874E-1,-1.0136642E-1,2.1472072E-2,1.5187621E-1,-5.7054717E-2,-1.7005786E-1,1.6592115E-1,-2.5108637E-2,-4.822979E-2,-1.2708138E-1,-2.1661165E-1,-1.2609199E-1,-8.196788E-3,1.5884742E-1,8.434629E-2,-1.5092105E-1,-6.7236334E-2,-2.4564375E-1,4.1083655E-1,-6.2399898E-2,-6.981783E-2,-3.248499E-2,-4.548821E-2,-1.8054336E-1,4.904737E-3,2.73955E-1,-2.6010734E-1,-6.594167E-2,2.691424E-1,-8.523099E-2,-1.4233647E-2,-1.708135E-1,1.9469751E-1,4.4027123E-1,-1.5475053E-1,1.11436024E-1,-5.446164E-3,-2.080621E-1,-1.4716835E-3,1.01941474E-1],"split_indices":[2,0,2,3,4,4,1,1,1,2,3,6,2,2,2,3,2,2,1,3,1,0,0,3,0,2,1,3,2,0,7,0,0,0,0,2,0,0,2,2,2,1,2,0,2,0,3,3,1,0,0,1,2,0,0,3,1,0,6,2,0,1,0,0,0,0,0,0,0,0,0,0,0,0,0,0,0,0,0,0,0,0,0,0,0,0,0,0,0,0,0,0,0,0,0,0,0,0,0,0,0,0,0,0,0,0,0,0,0,0,0,0,0],"split_type":[0,0,0,0,0,0,0,0,0,0,0,0,0,0,0,0,0,0,0,0,0,0,0,0,0,0,0,0,0,0,0,0,0,0,0,0,0,0,0,0,0,0,0,0,0,0,0,0,0,0,0,0,0,0,0,0,0,0,0,0,0,0,0,0,0,0,0,0,0,0,0,0,0,0,0,0,0,0,0,0,0,0,0,0,0,0,0,0,0,0,0,0,0,0,0,0,0,0,0,0,0,0,0,0,0,0,0,0,0,0,0,0,0],"sum_hessian":[3.5189634E3,1.4511268E3,2.0678364E3,2.0507852E2,1.2460483E3,1.0037649E3,1.0640715E3,8.027372E1,1.248048E2,8.037552E2,4.4229312E2,2.411361E2,7.626288E2,5.101098E2,5.539618E2,7.738408E1,2.8896391E0,2.7115368E1,9.768944E1,4.3928485E2,3.6447037E2,1.4565839E2,2.9663474E2,2.2434354E2,1.6792557E1,7.549312E2,7.6975613E0,8.3301254E1,4.2680856E2,1.7429806E1,5.36532E2,7.63188E1,1.0652782E0,1.363366E0,1.5262731E0,2.0142704E1,6.972664E0,9.357617E1,4.1132627E0,4.288379E2,1.0446961E1,2.7750958E2,8.6960785E1,1.4146028E0,1.4424379E2,1.2499709E1,2.84135E2,2.0240454E2,2.1938993E1,1.5223233E1,1.5693225E0,4.3377385E0,7.505935E2,3.162796E0,4.5347652E0,2.6891236E0,8.061213E1,1.0903558E1,4.15905E2,1.1935786E1,5.494021E0,4.1700537E2,1.1952659E2,5.2203766E1,2.4115034E1,1.1488225E1,8.654478E0,3.2210674E0,3.7515962E0,5.8869736E1,3.4706436E1,2.729027E0,1.3842356E0,7.664699E1,3.521909E2,9.019385E0,1.4275764E0,2.4793356E2,2.9576015E1,8.762825E0,7.819796E1,9.8195076E1,4.6048714E1,2.288401E1,2.61251E2,1.886005E2,1.3804051E1,4.0282516E0,1.7910742E1,7.7981486E0,7.4250846E0,1.8628367E0,2.4749017E0,3.7749176E2,3.731017E2,2.0869257E0,1.0758702E0,1.3671777E0,1.3219459E0,7.5973773E0,7.301475E1,8.802944E0,2.1006138E0,4.0485046E2,1.1054521E1,9.864332E0,2.0714533E0,3.6920316E0,1.8019892E0,4.1128485E2,5.720533E0,7.060252E1,4.8924065E1],"tree_param":{"num_deleted":"0","num_feature":"8","num_nodes":"113","size_leaf_vector":"0"}},{"base_weights":[-1.5074092E-1,-3.3411568E-1,-7.671245E-2,-2.861081E-1,-5.273435E-1,-1.5615472E-1,-3.5999835E-2,-2.4731942E-1,-4.2333794E-1,5.005562E-2,-5.737591E-1,1.054721E0,-1.6168307E-1,9.7746485E-1,-4.035208E-2,-2.5530672E-1,4.177006E-1,-6.071232E-1,-2.8914642E-1,-7.821285E-2,5.691642E-1,-7.746021E-1,-5.2034754E-1,1.5785535E-1,1.575871E0,-6.661656E-1,-1.5017028E-1,1.6850239E-1,1.335346E0,-5.204733E-1,-3.4948327E-2,-3.8024822E-1,-2.0471686E-1,-5.898136E-1,7.198874E-1,-6.450836E-1,1.093233E-1,1.8007338E-1,-3.323853E-1,-2.2763184E-1,4.5483574E-1,9.384371E-1,-8.005322E-2,-3.1124631E-2,-7.9606766E-1,1.474164E-1,-5.4992235E-1,-7.760544E-2,-7.002442E-1,-1.7348643E-1,6.0990594E-2,7.9845023E-1,-5.6513226E-1,-6.4069617E-1,3.2308558E-1,-1.1735983E-2,-1.352049E-1,-4.3952787E-1,-1.2509978E-1,5.5183405E-1,-2.1426804E-1,-2.3424438E-1,1.0788786E0,-9.394056E-1,-5.723839E-1,6.0476756E-1,-5.917275E-1,4.4963095E-1,-6.4477146E-1,-3.526071E-1,4.8619345E-1,-7.7630186E-1,-1.4223775E-3,8.234166E-1,-1.0752238E-1,-8.159447E-1,-8.221949E-2,7.9735553E-1,-7.290405E-1,-4.9395147E-1,-7.4520576E-1,-3.506816E-1,-7.5896984E-1,-1.7742272E-1,1.0824845E0,5.9733653E-1,-6.8596475E-2,-1.827381E-1,-8.213777E-1,-4.709001E-2,1.1125299E-1,-1.4714569E-1,8.545174E-1],"categories":[],"categories_nodes":[],"categories_segments":[],"categories_sizes":[],"default_left":[1,1,1,1,1,1,1,1,1,1,1,1,1,1,1,1,1,1,1,1,1,1,1,0,0,1,1,1,0,1,1,1,1,0,1,1,1,1,1,1,1,0,0,0,1,1,1,0,1,1,1,0,0,1,0,1,1,0,0,0,0,0,0,0,0,0,0,0,0,0,0,0,0,0,0,0,0,0,0,0,0,0,0,0,0,0,0,0,0,0,0,0,0],"id":11,"left_children":[1,3,5,7,9,11,13,15,17,19,21,23,25,27,29,31,33,35,37,39,41,43,45,-1,-1,47,49,51,-1,53,55,57,59,-1,61,63,65,67,69,71,73,-1,-1,-1,75,77,79,-1,81,83,85,-1,-1,87,-1,89,91,-1,-1,-1,-1,-1,-1,-1,-1,-1,-1,-1,-1,-1,-1,-1,-1,-1,-1,-1,-1,-1,-1,-1,-1,-1,-1,-1,-1,-1,-1,-1,-1,-1,-1,-1,-1],"loss_changes":[4.5426422E1,8.778984E0,7.7133217E0,4.011322E0,5.131153E0,5.581791E0,7.005171E0,3.3216286E0,3.9922886E0,1.0490011E0,1.4881821E0,1.530529E0,4.5786037E0,1.741508E0,4.0640216E0,3.7063904E0,2.7271044E0,1.9854202E0,2.0803041E0,1.1370317E0,8.2067037E-1,5.3362083E-1,2.8915863E0,0E0,0E0,3.0031443E-1,3.8945465E0,1.9429312E0,0E0,1.975668E0,3.621838E0,2.5372295E0,3.2132225E0,0E0,2.399689E0,8.961525E-1,1.8854103E0,2.3023815E0,1.6866207E0,1.3395042E0,7.465223E-1,0E0,0E0,0E0,4.1487312E-1,4.4686637E0,1.1237411E0,0E0,7.440472E-2,3.705574E0,5.544553E0,0E0,0E0,1.1406908E0,0E0,5.5072784E0,3.58397E0,0E0,0E0,0E0,0E0,0E0,0E0,0E0,0E0,0E0,0E0,0E0,0E0,0E0,0E0,0E0,0E0,0E0,0E0,0E0,0E0,0E0,0E0,0E0,0E0,0E0,0E0,0E0,0E0,0E0,0E0,0E0,0E0,0E0,0E0,0E0,0E0],"parents":[2147483647,0,0,1,1,2,2,3,3,4,4,5,5,6,6,7,7,8,8,9,9,10,10,11,11,12,12,13,13,14,14,15,15,16,16,17,17,18,18,19,19,20,20,21,21,22,22,25,25,26,26,27,27,29,29,30,30,31,31,32,32,34,34,35,35,36,36,37,37,38,38,39,39,40,40,44,44,45,45,46,46,48,48,49,49,50,50,53,53,55,55,56,56],"right_children":[2,4,6,8,10,12,14,16,18,20,22,24,26,28,30,32,34,36,38,40,42,44,46,-1,-1,48,50,52,-1,54,56,58,60,-1,62,64,66,68,70,72,74,-1,-1,-1,76,78,80,-1,82,84,86,-1,-1,88,-1,90,92,-1,-1,-1,-1,-1,-1,-1,-1,-1,-1,-1,-1,-1,-1,-1,-1,-1,-1,-1,-1,-1,-1,-1,-1,-1,-1,-1,-1,-1,-1,-1,-1,-1,-1,-1,-1],"split_conditions":[3.0563587E1,2.4928751E1,9.245E-1,5E-1,9.703402E0,3.0636448E1,3.0937954E1,2.4791603E1,9.125E-1,3.373298E1,1.2780586E1,3.0596004E1,4.175E-1,3.079231E1,3.2161358E1,1.7532228E1,3.8949996E-1,6.365E-1,9.1850007E-1,8.598284E0,7.7824917E0,2.573353E1,1.2970116E1,4.7356606E-2,4.727613E-1,4.015E-1,5E-1,3.0658918E1,4.006038E-1,5E-1,5.435E-1,6.9350004E-1,1.759991E1,-1.7694408E-1,7.6549995E-1,8.665E-1,8.975E-1,6.1899996E-1,6.7700005E-1,3.1212355E1,9.122278E0,2.8153116E-1,-2.4015967E-2,-9.33739E-3,8.05E-1,5E-1,2.8773785E1,-2.3281634E-2,1.0278677E1,1.3205284E1,3.3465477E1,2.3953508E-1,-1.6953969E-1,9.3649995E-1,9.6925676E-2,5.195E-1,5.985E-1,-1.3185836E-1,-3.7529934E-2,1.6555022E-1,-6.428041E-2,-7.027332E-2,3.236636E-1,-2.818217E-1,-1.7171517E-1,1.8143028E-1,-1.7751825E-1,1.3488929E-1,-1.9343145E-1,-1.0578214E-1,1.4585803E-1,-2.3289056E-1,-4.267133E-4,2.4702498E-1,-3.2256715E-2,-2.4478342E-1,-2.4665847E-2,2.3920667E-1,-2.1871217E-1,-1.4818545E-1,-2.2356173E-1,-1.05204485E-1,-2.2769096E-1,-5.3226817E-2,3.2474536E-1,1.7920096E-1,-2.0578943E-2,-5.482143E-2,-2.4641332E-1,-1.4127003E-2,3.33759E-2,-4.4143707E-2,2.5635523E-1],"split_indices":[2,3,0,4,2,2,2,3,0,3,2,2,1,2,2,2,1,1,0,2,2,3,2,0,0,1,5,2,0,5,1,1,2,0,0,0,0,1,1,3,2,0,0,0,1,5,3,0,3,3,2,0,0,0,0,1,1,0,0,0,0,0,0,0,0,0,0,0,0,0,0,0,0,0,0,0,0,0,0,0,0,0,0,0,0,0,0,0,0,0,0,0,0],"split_type":[0,0,0,0,0,0,0,0,0,0,0,0,0,0,0,0,0,0,0,0,0,0,0,0,0,0,0,0,0,0,0,0,0,0,0,0,0,0,0,0,0,0,0,0,0,0,0,0,0,0,0,0,0,0,0,0,0,0,0,0,0,0,0,0,0,0,0,0,0,0,0,0,0,0,0,0,0,0,0,0,0,0,0,0,0,0,0,0,0,0,0,0,0],"sum_hessian":[3.34723E3,9.6164374E2,2.3855862E3,7.722568E2,1.8938693E2,8.07358E2,1.5782281E3,6.042615E2,1.6799535E2,1.4085697E1,1.7530124E2,2.8067665E0,8.045512E2,5.7925143E0,1.5724357E3,5.976988E2,6.562649E0,6.940952E1,9.858582E1,1.1975868E1,2.1098292E0,3.398925E1,1.4131198E2,1.5103866E0,1.2963799E0,1.6682272E1,7.8786896E2,2.2277322E0,3.5647821E0,1.6439905E1,1.5559957E3,1.7038463E2,4.2731418E2,1.2945846E0,5.268064E0,6.601156E1,3.3979666E0,8.0512E0,9.053463E1,9.801398E0,2.17447E0,1.0609019E0,1.0489274E0,1.0225431E0,3.2966705E1,5.8241944E0,1.354878E2,1.0924351E0,1.5589837E1,7.0968475E2,7.818418E1,1.1510311E0,1.076701E0,1.4599667E1,1.8402393E0,1.2643733E3,2.9162247E2,1.3767532E2,3.2709293E1,4.6195874E0,4.2269458E2,1.5352224E0,3.7328417E0,1.071412E1,5.529744E1,2.071409E0,1.3265576E0,6.4109917E0,1.6402081E0,8.890754E1,1.6270863E0,2.151401E0,7.6499968E0,1.0331208E0,1.1413493E0,3.1934471E1,1.032235E0,3.396076E0,2.4281187E0,1.0804891E2,2.7438883E1,3.2450871E0,1.234475E1,7.083236E2,1.361186E0,1.4511833E1,6.3672344E1,4.6995363E0,9.90013E0,9.8254974E2,2.8182355E2,2.8898724E2,2.6352437E0],"tree_param":{"num_deleted":"0","num_feature":"8","num_nodes":"93","size_leaf_vector":"0"}},{"base_weights":[-1.1222928E-1,-5.1989E-2,-2.688998E-1,-7.450963E-2,4.069567E-2,-4.556045E-1,-2.3061453E-1,-1.539938E-1,-4.4020515E-2,9.301882E-3,5.56438E-1,-5.062728E-1,-2.647623E-1,-1.8980241E-1,-3.7910518E-1,-1.4469668E-1,-9.166667E-1,-5.1636774E-2,4.5340353E-1,2.0607712E-2,-8.808447E-1,-6.378766E-1,7.7750486E-1,-7.3180723E-1,-4.6344873E-1,1.9390033E0,-3.9258558E-1,-1.41472E-1,-2.8736418E-1,-8.9803636E-1,-3.481196E-1,-1.4950722E-1,8.245027E-1,-3.719158E-1,-4.2449042E-2,1.4511539E0,-2.7688954E-2,-8.1298836E-2,9.963053E-2,-5.0669525E-2,-7.885372E-1,-1.6290174E-1,1.0286123E0,-8.4542936E-1,-4.325017E-1,-4.9896833E-1,-1.1105386E-1,-1.7610309E-1,-7.7062106E-1,-4.3815408E-2,-2.4634366E-1,-4.5570663E-1,-1.5406488E-1,-2.7986342E-1,-5.258213E-1,6.84949E-2,-1.7271732E-1,1.20253734E-1,-6.67861E-1,6.811926E-1,-4.6831958E-2,-1.4541562E-1,1.8324577E0,-9.0008044E-1,3.914309E-1,-3.1900647E-1,-1.2507045E-2,1.242696E-1,-2.9258952E-1,-4.0169024E-1,4.6542814E-1,1.1490026E0,-2.299979E-1,-7.262673E-1,-1.1062298E-1,-4.6396458E-1,-8.7277204E-1,-4.80702E-1,1.01958E0,-6.152832E-1,1.493981E-1,-2.5284061E-2,-8.389127E-1,4.008772E-1,-1.09654695E-1,-1.5924202E-1,-4.4490167E-1,-3.1201872E-1,-7.978241E-1,1.0943661E0,-1.7979053E-1,-3.425493E-1,-1.4599394E-2,-8.892769E-1,-3.2319513E-1],"categories":[],"categories_nodes":[],"categories_segments":[],"categories_sizes":[],"default_left":[1,1,1,1,1,1,1,1,1,1,1,1,1,1,1,1,0,1,1,1,0,1,1,1,1,0,1,1,1,0,1,1,0,1,1,1,1,1,1,0,0,1,1,0,1,1,1,1,1,1,1,1,1,1,1,0,0,0,0,0,0,0,0,0,0,0,0,0,0,0,0,0,0,0,0,0,0,0,0,0,0,0,0,0,0,0,0,0,0,0,0,0,0,0,0],"id":12,"left_children":[1,3,5,7,9,11,13,15,17,19,21,23,25,27,29,31,-1,33,35,37,-1,39,41,43,45,-1,47,49,51,-1,53,55,-1,57,59,61,63,65,67,-1,-1,69,71,-1,73,75,77,79,81,83,85,87,89,91,93,-1,-1,-1,-1,-1,-1,-1,-1,-1,-1,-1,-1,-1,-1,-1,-1,-1,-1,-1,-1,-1,-1,-1,-1,-1,-1,-1,-1,-1,-1,-1,-1,-1,-1,-1,-1,-1,-1,-1,-1],"loss_changes":[3.0425419E1,4.8680816E0,6.295784E0,4.5383034E0,7.3823595E0,1.3294811E0,4.4436264E0,3.5514116E0,5.1641645E0,4.3567576E0,7.4036207E0,8.0537796E-1,1.0296398E1,2.724718E0,2.2542686E0,2.5220299E0,0E0,3.919598E0,9.91181E0,3.4441159E0,0E0,3.701619E-1,5.4872503E0,2.1871853E-1,1.2253113E0,0E0,2.550665E0,4.0259957E0,4.2677937E0,0E0,1.6998463E0,2.6065216E0,0E0,5.4937162E0,4.15887E0,4.350766E0,5.784379E0,3.0523753E0,2.3631597E0,0E0,0E0,1.0287983E0,2.979063E0,0E0,5.603403E-1,8.0752754E-1,4.943312E0,3.2610493E0,5.721121E-1,6.0553417E0,3.2124596E0,3.9254837E0,3.710262E0,1.8599644E0,2.7409534E0,0E0,0E0,0E0,0E0,0E0,0E0,0E0,0E0,0E0,0E0,0E0,0E0,0E0,0E0,0E0,0E0,0E0,0E0,0E0,0E0,0E0,0E0,0E0,0E0,0E0,0E0,0E0,0E0,0E0,0E0,0E0,0E0,0E0,0E0,0E0,0E0,0E0,0E0,0E0,0E0],"parents":[2147483647,0,0,1,1,2,2,3,3,4,4,5,5,6,6,7,7,8,8,9,9,10,10,11,11,12,12,13,13,14,14,15,15,17,17,18,18,19,19,21,21,22,22,23,23,24,24,26,26,27,27,28,28,30,30,31,31,33,33,34,34,35,35,36,36,37,37,38,38,41,41,42,42,44,44,45,45,46,46,47,47,48,48,49,49,50,50,51,51,52,52,53,53,54,54],"right_children":[2,4,6,8,10,12,14,16,18,20,22,24,26,28,30,32,-1,34,36,38,-1,40,42,44,46,-1,48,50,52,-1,54,56,-1,58,60,62,64,66,68,-1,-1,70,72,-1,74,76,78,80,82,84,86,88,90,92,94,-1,-1,-1,-1,-1,-1,-1,-1,-1,-1,-1,-1,-1,-1,-1,-1,-1,-1,-1,-1,-1,-1,-1,-1,-1,-1,-1,-1,-1,-1,-1,-1,-1,-1,-1,-1,-1,-1,-1,-1],"split_conditions":[1.1264821E1,5E-1,7.795E-1,4.1630814E1,1.064323E1,1.602689E1,5E-1,4.1542107E1,9.360167E0,6.1249995E-1,8.975E-1,7.1449995E-1,1.6053383E1,1.960902E1,8.655E-1,1.1251413E1,-2.75E-1,4.2563927E1,9.450611E0,4.885E-1,-2.6425344E-1,3.6029892E1,2.8063187E1,5.415E-1,3.0336994E1,5.8170104E-1,5E-1,5.095E-1,5.0250006E-1,-2.694109E-1,9.035001E-1,7.652951E0,2.4735083E-1,4.201442E1,4.2680374E1,4.755E-1,9.488847E0,9.2649996E-1,1.0017356E1,-1.5200858E-2,-2.3656116E-1,1.1131067E1,3.7064743E1,-2.5362882E-1,1.2258072E1,2.9678658E1,1.2822149E1,4.835E-1,2.3648972E1,8.455E-1,1.637379E1,1.8228985E1,5.065E-1,8.9549994E-1,9.125E-1,2.054847E-2,-5.1815197E-2,3.607612E-2,-2.003583E-1,2.0435779E-1,-1.4049588E-2,-4.3624688E-2,5.4973733E-1,-2.7002415E-1,1.1742928E-1,-9.570195E-2,-3.7521136E-3,3.728088E-2,-8.7776855E-2,-1.2050708E-1,1.3962846E-1,3.4470078E-1,-6.899937E-2,-2.1788019E-1,-3.3186894E-2,-1.3918938E-1,-2.618316E-1,-1.442106E-1,3.0587402E-1,-1.8458496E-1,4.4819433E-2,-7.5852186E-3,-2.5167382E-1,1.2026317E-1,-3.289641E-2,-4.777261E-2,-1.334705E-1,-9.360562E-2,-2.3934723E-1,3.2830983E-1,-5.393716E-2,-1.0276479E-1,-4.379818E-3,-2.667831E-1,-9.695854E-2],"split_indices":[3,7,0,2,3,2,4,2,3,1,0,0,2,3,0,3,0,2,3,1,0,2,2,1,3,0,5,1,1,0,0,3,0,2,2,1,3,0,3,0,0,3,2,0,2,3,2,1,3,0,3,2,1,0,0,0,0,0,0,0,0,0,0,0,0,0,0,0,0,0,0,0,0,0,0,0,0,0,0,0,0,0,0,0,0,0,0,0,0,0,0,0,0,0,0],"split_type":[0,0,0,0,0,0,0,0,0,0,0,0,0,0,0,0,0,0,0,0,0,0,0,0,0,0,0,0,0,0,0,0,0,0,0,0,0,0,0,0,0,0,0,0,0,0,0,0,0,0,0,0,0,0,0,0,0,0,0,0,0,0,0,0,0,0,0,0,0,0,0,0,0,0,0,0,0,0,0,0,0,0,0,0,0,0,0,0,0,0,0,0,0,0,0],"sum_hessian":[3.2242383E3,2.3297676E3,8.9447076E2,1.8744965E3,4.5527118E2,1.5035217E2,7.441186E2,5.185644E2,1.355932E3,4.3010806E2,2.5163101E1,1.17502594E2,3.284958E1,5.854798E2,1.5863878E2,5.134945E2,5.06986E0,1.3363666E3,1.9565456E1,4.2567834E2,4.429728E0,3.635711E0,2.1527391E1,1.6183395E1,1.013192E2,1.0240915E0,3.1825487E1,3.931635E2,1.9231628E2,7.3619604E0,1.5127682E2,5.118E2,1.6945304E0,3.616587E1,1.3002007E3,5.709013E0,1.3856444E1,1.8590694E2,2.3977141E2,1.0152074E0,2.6205034E0,4.6108494E0,1.6916542E1,1.0407769E1,5.7756267E0,9.1664E1,9.655196E0,2.1168917E1,1.065657E1,2.0431915E2,1.8884436E2,8.3918175E1,1.0839812E2,1.11156075E2,4.012074E1,4.905904E1,4.6274097E2,1.3803585E1,2.2362286E1,6.897931E0,1.2933027E3,1.2198744E0,4.4891386E0,4.1242766E0,9.732167E0,4.0909233E1,1.4499771E2,2.2624214E2,1.3529257E1,3.6024773E0,1.0083724E0,1.5519166E1,1.3973752E0,2.3628302E0,3.4127965E0,8.586466E1,5.799342E0,7.7094994E0,1.9456965E0,8.631995E0,1.25369215E1,1.0094664E0,9.647104E0,2.5693182E1,1.7862596E2,1.3251561E2,5.6328754E1,6.044398E1,2.347419E1,1.3498902E0,1.0704823E2,8.967352E1,2.1482555E1,1.3148034E1,2.6972706E1],"tree_param":{"num_deleted":"0","num_feature":"8","num_nodes":"95","size_leaf_vector":"0"}},{"base_weights":[-8.390521E-2,-3.7567094E-2,-2.092519E-1,-3.905563E-2,1.3143736E0,-4.7867447E-1,-1.8748088E-1,-3.5249218E-1,-3.356796E-2,1.4251135E-1,-5.063559E-1,-1.6070671E-1,-2.97853E-1,-8.349036E-1,-2.1693169E-1,1.1593943E0,-3.5703294E-2,-5.38603E-1,6.9368607E-1,-4.4388372E-1,-8.0275935E-1,-2.4866435E-1,-1.1006431E-1,-8.6320734E-1,-2.7003595E-1,-3.288131E-2,-9.4214934E-1,2.5854078E-1,-5.0550383E-1,1.5789356E0,2.0029883E-1,-7.1049E-1,-3.3141676E-2,-5.714905E-1,-1.6521882E-2,-8.970791E-1,-1.7207678E-2,-2.7251267E-1,2.6457858E-1,1.6480951E-1,-1.3535418E-1,-3.0051917E-1,3.869416E-2,-3.0230832E-1,7.4000245E-1,-5.7601845E-1,3.420019E-1,-7.869223E-1,-7.816036E-2,8.298373E-1,-3.496206E-2,-3.137437E-1,-6.498843E-1,3.684968E-1,-7.9777664E-1,-4.4316515E-1,-2.0668402E-1,1.19174644E-1,8.1035656E-1,-4.3536764E-2,7.8488374E-1,-7.5078124E-1,-1.115507E-1,-2.5152564E-1,-7.75049E-1,1.4506137E0,-2.926128E-1],"categories":[],"categories_nodes":[],"categories_segments":[],"categories_sizes":[],"default_left":[1,1,1,1,0,1,1,1,1,1,1,1,1,1,1,1,1,0,0,1,1,1,1,0,1,0,0,1,1,0,0,1,1,1,1,0,0,1,1,1,1,1,1,0,0,0,0,0,0,0,0,0,0,0,0,0,0,0,0,0,0,0,0,0,0,0,0],"id":13,"left_children":[1,3,5,7,-1,9,11,13,15,17,19,21,23,25,27,29,31,-1,-1,33,35,37,39,-1,41,-1,-1,43,45,-1,-1,47,49,51,53,-1,-1,55,57,59,61,63,65,-1,-1,-1,-1,-1,-1,-1,-1,-1,-1,-1,-1,-1,-1,-1,-1,-1,-1,-1,-1,-1,-1,-1,-1],"loss_changes":[1.8214987E1,4.66338E0,4.875862E0,3.9274824E0,0E0,1.1494331E0,2.2716484E0,2.3891182E0,5.7779474E0,1.669943E0,7.58317E-1,2.796053E0,2.1582985E0,6.803975E-1,4.5257626E0,1.3148017E0,3.8637712E0,0E0,0E0,2.8238468E0,6.6932535E-1,2.8971615E0,2.8310423E0,0E0,1.3892794E0,0E0,0E0,3.669215E0,1.4085026E0,0E0,0E0,3.4717655E-1,3.5502067E0,6.038952E-1,4.1970935E0,0E0,0E0,2.3916454E0,7.5698805E-1,4.4903603E0,5.344588E0,2.9051828E0,6.992466E0,0E0,0E0,0E0,0E0,0E0,0E0,0E0,0E0,0E0,0E0,0E0,0E0,0E0,0E0,0E0,0E0,0E0,0E0,0E0,0E0,0E0,0E0,0E0,0E0],"parents":[2147483647,0,0,1,1,2,2,3,3,5,5,6,6,7,7,8,8,9,9,10,10,11,11,12,12,13,13,14,14,15,15,16,16,19,19,20,20,21,21,22,22,24,24,27,27,28,28,31,31,32,32,33,33,34,34,37,37,38,38,39,39,40,40,41,41,42,42],"right_children":[2,4,6,8,-1,10,12,14,16,18,20,22,24,26,28,30,32,-1,-1,34,36,38,40,-1,42,-1,-1,44,46,-1,-1,48,50,52,54,-1,-1,56,58,60,62,64,66,-1,-1,-1,-1,-1,-1,-1,-1,-1,-1,-1,-1,-1,-1,-1,-1,-1,-1,-1,-1,-1,-1,-1,-1],"split_conditions":[1.1190262E1,1.1180124E1,7.515E-1,2.3926552E1,3.943121E-1,3.205E-1,5E-1,8.030422E0,2.435286E1,1.1673431E1,1.5203894E1,1.7532228E1,8.655E-1,1.3920255E1,9.413503E0,9.655E-1,2.536485E1,-1.615809E-1,2.0810583E-1,1.4453552E1,1.5800819E1,3.1229818E1,1.823245E1,-2.589622E-1,1.4138188E1,-9.864393E-3,-2.826448E-1,9.6950006E-1,1.1133993E1,4.736807E-1,6.008965E-2,9.76E-1,2.5834076E1,4.11E-1,5.385E-1,-2.6912373E-1,-5.162304E-3,1.3833284E1,3.373298E1,1.8041931E1,8.0149996E-1,1.3625038E1,1.4310942E1,-9.06925E-2,2.2200075E-1,-1.7280555E-1,1.0260057E-1,-2.360767E-1,-2.344811E-2,2.4895121E-1,-1.0488619E-2,-9.412312E-2,-1.9496529E-1,1.1054905E-1,-2.39333E-1,-1.3294955E-1,-6.200521E-2,3.5752393E-2,2.4310698E-1,-1.306103E-2,2.3546512E-1,-2.2523437E-1,-3.3465214E-2,-7.545769E-2,-2.325147E-1,4.3518415E-1,-8.778384E-2],"split_indices":[3,3,0,2,0,1,4,3,2,2,2,2,0,2,3,0,2,0,0,2,2,3,2,0,3,0,0,0,3,0,0,0,2,1,1,0,0,2,3,2,0,3,3,0,0,0,0,0,0,0,0,0,0,0,0,0,0,0,0,0,0,0,0,0,0,0,0],"split_type":[0,0,0,0,0,0,0,0,0,0,0,0,0,0,0,0,0,0,0,0,0,0,0,0,0,0,0,0,0,0,0,0,0,0,0,0,0,0,0,0,0,0,0,0,0,0,0,0,0,0,0,0,0,0,0,0,0,0,0,0,0,0,0,0,0,0,0],"sum_hessian":[3.1363645E3,2.2908015E3,8.45563E2,2.2892522E3,1.549437E0,6.1649235E1,7.8391376E2,3.8302673E1,2.2509495E3,2.4530544E0,5.919618E1,6.32852E2,1.5106175E2,7.270534E0,3.1032139E1,3.053532E0,2.247896E3,1.1073971E0,1.3456573E0,5.0954258E1,8.24192E0,2.2980606E2,4.0304593E2,5.6757646E0,1.4538599E2,1.0116494E0,6.2588844E0,1.1759841E1,1.9272299E1,1.6746892E0,1.3788426E0,7.456016E0,2.24044E3,3.8978374E1,1.1975882E1,7.231655E0,1.0102652E0,2.2005026E2,9.755806E0,3.3493256E1,3.6955267E2,1.3234517E2,1.3040821E1,5.603958E0,6.1558824E0,1.8087694E1,1.1846046E0,6.4338493E0,1.0221668E0,3.7586064E0,2.2366814E3,1.0257012E1,2.8721363E1,8.376228E0,3.5996535E0,5.9659187E1,1.6039107E2,8.665528E0,1.0902772E0,2.5765707E1,7.7275457E0,1.2624021E1,3.5692865E2,1.2134661E2,1.0998559E1,1.8363693E0,1.1204452E1],"tree_param":{"num_deleted":"0","num_feature":"8","num_nodes":"67","size_leaf_vector":"0"}},{"base_weights":[-6.143226E-2,-1.4644003E-1,-1.9531595E-2,-1.2119348E-1,-3.1071562E-1,-1.4930136E-2,-4.8311973E-1,-1.234975E-1,9.327104E-1,1.1754919E-1,-3.6094898E-1,7.928433E-1,-1.8133493E-2,-7.719386E-1,-1.1522826E-1,-1.1936896E-1,-7.172038E-1,-5.250097E-1,2.035207E-1,-6.40816E-1,-2.983212E-1,-1.1059154E-1,1.1429002E0,-1.4737672E-2,-4.389706E-1,-9.497211E-1,-4.6295127E-1,1.2652261E0,-4.1802037E-1,7.135968E-1,-1.21978156E-1,-8.4963906E-1,-5.0829135E-2,3.8496185E-2,7.190293E-1,-6.7104375E-1,-1.5117437E-2,1.8739714E-1,-3.4285992E-1,-5.633341E-1,4.122559E-1,1.6070845E0,3.7379798E-1,-1.7222684E-2,8.5343695E-1,-5.59132E-1,2.8065744E-1,1.427137E-2,-8.1692386E-1,-5.848739E-1,4.5188022E-1,-7.11824E-1,-1.1535022E-1,-2.508463E-1,2.3836051E-1,-4.157177E-2,1.0742178E0,-7.8855145E-1,-4.019942E-1,-4.2643625E-1,7.6636416E-1,-7.83458E-1,-2.95801E-1,-4.2255726E-2,5.621578E-1,-3.0572029E-2,7.8740776E-2,-1.9616331E-1,1.2164857E0,-6.9756347E-1,-1.2819746E-2,6.552555E-1,-6.2870467E-1,-8.693046E-1,-1.242599E-1],"categories":[],"categories_nodes":[],"categories_segments":[],"categories_sizes":[],"default_left":[1,1,1,1,1,1,1,1,0,1,1,1,1,1,1,1,1,0,1,1,1,1,1,1,1,0,1,0,1,0,1,0,0,1,1,1,0,1,1,0,0,0,1,1,1,1,0,1,0,1,0,0,0,0,0,0,0,0,0,0,0,0,0,0,0,0,0,0,0,0,0,0,0,0,0],"id":14,"left_children":[1,3,5,7,9,11,13,15,-1,17,19,21,23,25,27,29,31,-1,33,35,37,39,41,43,45,-1,47,-1,49,-1,51,-1,-1,53,55,57,-1,59,61,-1,-1,-1,63,65,67,69,-1,71,-1,73,-1,-1,-1,-1,-1,-1,-1,-1,-1,-1,-1,-1,-1,-1,-1,-1,-1,-1,-1,-1,-1,-1,-1,-1,-1],"loss_changes":[1.0953586E1,4.1737766E0,4.390525E0,2.2564163E0,2.9387283E0,5.299152E0,2.060546E0,2.0732832E0,0E0,9.2928267E-1,1.9251165E0,2.6847806E0,2.9021046E0,1.7322683E-1,4.7390804E0,1.9906702E0,4.759779E-1,0E0,1.1507013E0,3.909607E-1,2.2391272E0,9.828471E-1,1.5122924E0,4.372716E0,1.5626731E0,0E0,1.0296016E0,0E0,1.5723805E0,0E0,3.3347902E0,0E0,0E0,7.2767836E-1,9.3681204E-1,3.2186127E-1,0E0,3.5576086E0,1.684969E0,0E0,0E0,0E0,3.0045393E-1,2.5840087E0,2.443129E0,1.0698652E0,0E0,1.874672E0,0E0,9.397764E-1,0E0,0E0,0E0,0E0,0E0,0E0,0E0,0E0,0E0,0E0,0E0,0E0,0E0,0E0,0E0,0E0,0E0,0E0,0E0,0E0,0E0,0E0,0E0,0E0,0E0],"parents":[2147483647,0,0,1,1,2,2,3,3,4,4,5,5,6,6,7,7,9,9,10,10,11,11,12,12,13,13,14,14,15,15,16,16,18,18,19,19,20,20,21,21,22,22,23,23,24,24,26,26,28,28,30,30,33,33,34,34,35,35,37,37,38,38,42,42,43,43,44,44,45,45,47,47,49,49],"right_children":[2,4,6,8,10,12,14,16,-1,18,20,22,24,26,28,30,32,-1,34,36,38,40,42,44,46,-1,48,-1,50,-1,52,-1,-1,54,56,58,-1,60,62,-1,-1,-1,64,66,68,70,-1,72,-1,74,-1,-1,-1,-1,-1,-1,-1,-1,-1,-1,-1,-1,-1,-1,-1,-1,-1,-1,-1,-1,-1,-1,-1,-1,-1],"split_conditions":[3.535978E1,2.4928751E1,5.835E-1,2.4907593E1,9.988028E0,3.5514435E1,7.6211033E0,5E-1,2.7981314E-1,2.7100395E1,1.2780586E1,4.325E-1,1.1005043E1,7.19195E0,7.6781464E0,2.415E-1,3.3876793E1,-1.5750292E-1,8.97118E0,8.1850004E-1,3.2950002E-1,9.475E-1,4.92E-1,1.0934182E1,5E-1,-2.8491634E-1,3.8171722E1,3.7956786E-1,9.108334E0,2.1407905E-1,2.855E-1,-2.5489172E-1,-1.5248741E-2,3.3526794E1,7.805E-1,3.1450882E1,-4.5352313E-3,3.0949998E-1,2.519484E1,-1.6900024E-1,1.2367678E-1,4.8212537E-1,3.541387E1,9.685E-1,5E-1,1.1248364E1,8.419724E-2,5.89E-1,-2.4507716E-1,5.8949995E-1,1.3556407E-1,-2.1354721E-1,-3.4605067E-2,-7.525389E-2,7.1508154E-2,-1.24715315E-2,3.2226536E-1,-2.3656544E-1,-1.20598264E-1,-1.2793088E-1,2.2990926E-1,-2.350374E-1,-8.8740304E-2,-1.2676719E-2,1.6864735E-1,-9.171609E-3,2.3622233E-2,-5.8848996E-2,3.6494574E-1,-2.0926905E-1,-3.8459238E-3,1.9657665E-1,-1.886114E-1,-2.607914E-1,-3.727797E-2],"split_indices":[2,3,1,3,2,2,3,6,0,3,2,1,3,3,3,1,2,0,2,0,1,0,1,3,5,0,2,0,3,0,1,0,0,3,0,3,0,1,3,0,0,0,2,0,4,3,0,1,0,1,0,0,0,0,0,0,0,0,0,0,0,0,0,0,0,0,0,0,0,0,0,0,0,0,0],"split_type":[0,0,0,0,0,0,0,0,0,0,0,0,0,0,0,0,0,0,0,0,0,0,0,0,0,0,0,0,0,0,0,0,0,0,0,0,0,0,0,0,0,0,0,0,0,0,0,0,0,0,0,0,0,0,0,0,0,0,0,0,0,0,0,0,0,0,0,0,0,0,0,0,0,0,0],"sum_hessian":[3.0750266E3,1.01444104E3,2.0605857E3,8.8081195E2,1.3362906E2,2.0413558E3,1.9229782E1,8.797715E2,1.0405176E0,1.3887874E1,1.19741196E2,7.0896654E0,2.0342662E3,1.0157332E1,9.07245E0,8.748887E2,4.8827796E0,1.0362276E0,1.2851646E1,2.0207428E1,9.953377E1,2.1709373E0,4.9187284E0,2.0190094E3,1.5256785E1,5.131283E0,5.0260496E0,1.0602323E0,8.0122175E0,1.8810571E0,8.730076E2,3.8438382E0,1.0389414E0,1.0549287E1,2.3023593E0,1.9207056E1,1.0003722E0,8.090885E0,9.144288E1,1.1219697E0,1.0489676E0,2.3879466E0,2.5307815E0,2.0142241E3,4.7852354E0,1.3264881E1,1.9919044E0,2.5490823E0,2.4769673E0,6.997666E0,1.0145512E0,8.518471E0,8.6448914E2,4.2056737E0,6.343613E0,1.0139798E0,1.2883794E0,1.2024472E1,7.182584E0,4.0550675E0,4.035817E0,7.3141646E0,8.4128716E1,1.030423E0,1.5003586E0,1.7688441E3,2.4538007E2,1.3479354E0,3.4373E0,1.0362293E1,2.9025884E0,1.2669548E0,1.2821276E0,3.7776694E0,3.2199965E0],"tree_param":{"num_deleted":"0","num_feature":"8","num_nodes":"75","size_leaf_vector":"0"}},{"base_weights":[-4.4710394E-2,-1.5834576E-1,-2.443871E-2,-1.4461237E-1,-6.032084E-1,-1.9563776E-2,-2.9304737E-1,5.4256827E-1,-1.630908E-1,-7.2806746E-1,4.6759158E-1,3.7791837E-2,-5.0673492E-2,-6.453834E-1,-1.4093955E-1,2.8084956E-2,2.2510924E0,-1.4240606E-1,-4.5324036E-1,-1.02247305E-1,-7.8376985E-1,3.6034787E-1,2.77555E-2,-2.7993891E-2,-1.4867882E-1,-6.918512E-1,-4.191276E-2,8.9422524E-1,-2.3489238E-1,9.349489E-1,-3.951386E-1,-2.0691395E-1,-5.1149577E-3,-7.950677E-1,2.820963E-1,-9.2477226E-1,-2.66262E-1,1.1713959E0,1.8642214E-1,-2.0328355E-1,4.1220192E-2,-3.1645935E-2,4.708438E-1,-4.387269E-1,-1.04214914E-1,-7.8477025E-1,-2.1926309E-1,-5.214732E-1,-2.9906737E-2,1.7229458E0,-5.2671635E-1,2.4117407E-1,-6.851969E-1,-1.8774867E-1,-6.675828E-1,3.9311883E-1,-1.7753401E-1,-1.883462E-2,-8.358802E-1,6.1517966E-1,-3.1305206E-1,-5.845863E-1,1.03068225E-1,1.5288537E0,2.2057316E-1,-6.738392E-1,4.1935506E-1,3.3751416E-1,-3.278828E-1,6.416439E-1,3.637786E-2,-5.959412E-1,-2.7873747E-2,6.3795114E-1,-2.592558E-1,-9.334772E-1,-2.856159E-1,-1.24638736E-1,5.8368886E-1,-6.1596406E-1,3.249039E-1,-6.075643E-1,2.164019E-1,-2.3320195E-1,6.417051E-1],"categories":[],"categories_nodes":[],"categories_segments":[],"categories_sizes":[],"default_left":[1,1,1,1,1,1,1,1,1,1,0,1,1,1,1,1,0,1,1,0,1,1,1,1,1,1,0,0,1,1,1,1,1,1,1,0,1,1,1,1,1,1,1,1,1,0,1,1,1,0,0,0,0,0,0,0,0,0,0,0,0,0,0,0,0,0,0,0,0,0,0,0,0,0,0,0,0,0,0,0,0,0,0,0,0],"id":15,"left_children":[1,3,5,7,9,11,13,15,17,19,-1,21,23,25,27,29,-1,31,33,-1,35,37,39,41,43,45,-1,-1,47,49,51,53,55,57,59,-1,61,63,65,67,69,71,73,75,77,-1,79,81,83,-1,-1,-1,-1,-1,-1,-1,-1,-1,-1,-1,-1,-1,-1,-1,-1,-1,-1,-1,-1,-1,-1,-1,-1,-1,-1,-1,-1,-1,-1,-1,-1,-1,-1,-1,-1],"loss_changes":[6.9667683E0,2.71037E0,3.358361E0,5.7456465E0,2.131681E0,4.506184E0,2.3594942E0,1.0394676E1,2.5438852E0,3.51758E-1,0E0,2.8656473E0,3.6346006E0,3.497882E-1,3.4404774E0,4.2675805E0,0E0,3.6048412E0,7.3789096E0,0E0,5.7299566E-1,3.5510464E0,2.6917212E0,2.4390674E0,3.9188929E0,3.7585068E-1,0E0,0E0,1.8198116E0,4.9719462E0,1.5730858E0,2.3200388E0,9.076861E0,6.081314E-1,2.1294954E0,0E0,5.079803E-1,1.2021651E0,4.929962E0,3.322801E0,2.348849E0,2.7972794E0,1.352999E0,2.8051486E0,3.8361297E0,0E0,9.42281E-1,9.5525765E-1,2.7814684E0,0E0,0E0,0E0,0E0,0E0,0E0,0E0,0E0,0E0,0E0,0E0,0E0,0E0,0E0,0E0,0E0,0E0,0E0,0E0,0E0,0E0,0E0,0E0,0E0,0E0,0E0,0E0,0E0,0E0,0E0,0E0,0E0,0E0,0E0,0E0,0E0],"parents":[2147483647,0,0,1,1,2,2,3,3,4,4,5,5,6,6,7,7,8,8,9,9,11,11,12,12,13,13,14,14,15,15,17,17,18,18,20,20,21,21,22,22,23,23,24,24,25,25,28,28,29,29,30,30,31,31,32,32,33,33,34,34,36,36,37,37,38,38,39,39,40,40,41,41,42,42,43,43,44,44,46,46,47,47,48,48],"right_children":[2,4,6,8,10,12,14,16,18,20,-1,22,24,26,28,30,-1,32,34,-1,36,38,40,42,44,46,-1,-1,48,50,52,54,56,58,60,-1,62,64,66,68,70,72,74,76,78,-1,80,82,84,-1,-1,-1,-1,-1,-1,-1,-1,-1,-1,-1,-1,-1,-1,-1,-1,-1,-1,-1,-1,-1,-1,-1,-1,-1,-1,-1,-1,-1,-1,-1,-1,-1,-1,-1,-1],"split_conditions":[8.775E-1,8.7549996E-1,5E-1,1.3660982E1,6.345E-1,5E-1,4.507163E1,1.3574009E1,8.6950004E-1,3.825E-1,1.4027748E-1,8.825E-1,9.76919E0,1.1768349E1,9.2350006E-1,1.32561455E1,6.753278E-1,2.0548815E1,5.8E-1,-3.0674193E-2,5E-1,1.7633755E1,8.925E-1,9.725225E0,1.0013965E1,5.66E-1,-1.2573829E-2,2.6826757E-1,5.884438E1,3.0950207E1,4.8900002E-1,2.0157906E1,4.6350002E-1,1.4920277E1,6.495E-1,-2.774317E-1,4.82E-1,5E-1,4.0850002E-1,2.0000887E1,8.935E-1,3.8950002E-1,4.107278E1,4.535E-1,3.949205E1,-2.3543109E-1,3.738314E1,9.655E-1,5.35099E0,5.168838E-1,-1.5801491E-1,7.235222E-2,-2.0555907E-1,-5.6324605E-2,-2.0027485E-1,1.1793565E-1,-5.3260207E-2,-5.650386E-3,-2.5076407E-1,1.845539E-1,-9.391562E-2,-1.7537591E-1,3.0920468E-2,4.586561E-1,6.617195E-2,-2.0215178E-1,1.2580653E-1,1.01254255E-1,-9.8364845E-2,1.9249317E-1,1.0913358E-2,-1.7878236E-1,-8.362125E-3,1.9138534E-1,-7.7776745E-2,-2.8004318E-1,-8.568477E-2,-3.739162E-2,1.7510666E-1,-1.8478923E-1,9.747118E-2,-1.8226929E-1,6.4920574E-2,-6.996059E-2,1.9251154E-1],"split_indices":[0,0,6,3,1,4,2,3,0,1,0,0,3,3,0,3,0,2,1,0,5,2,0,3,3,1,0,0,2,2,1,2,1,2,1,0,1,5,1,2,0,1,2,1,2,0,2,0,3,0,0,0,0,0,0,0,0,0,0,0,0,0,0,0,0,0,0,0,0,0,0,0,0,0,0,0,0,0,0,0,0,0,0,0,0],"split_type":[0,0,0,0,0,0,0,0,0,0,0,0,0,0,0,0,0,0,0,0,0,0,0,0,0,0,0,0,0,0,0,0,0,0,0,0,0,0,0,0,0,0,0,0,0,0,0,0,0,0,0,0,0,0,0,0,0,0,0,0,0,0,0,0,0,0,0,0,0,0,0,0,0,0,0,0,0,0,0,0,0,0,0,0,0],"sum_hessian":[3.0250022E3,4.5691254E2,2.5680896E3,4.4451498E2,1.2397573E1,2.5233662E3,4.472334E1,1.0897398E1,4.3361758E2,1.138958E1,1.0079932E0,8.8729144E2,1.6360748E3,1.2507822E1,3.2215515E1,9.156549E0,1.7408489E0,4.0615372E2,2.7463858E1,1.1626562E0,1.0226924E1,2.5721712E1,8.6156976E2,1.3296611E3,3.0641376E2,1.1477584E1,1.0302383E0,1.9718643E0,3.024365E1,2.5288124E0,6.627737E0,2.7597598E2,1.3017775E2,1.8693022E1,8.770836E0,7.4186373E0,2.8082867E0,3.529228E0,2.2192484E1,4.6669846E1,8.148999E2,1.320927E3,8.734083E0,3.9550426E1,2.6686334E2,9.039651E0,2.4379327E0,1.19679165E1,